<?xml version="1.0" encoding="UTF-8"?>
<PMML version="4.2" xmlns="http://www.dmg.org/PMML-4_2">
  <Header copyright="Vincenzo">
    <Application name="KNIME" version="3.5.0"/>
  </Header>
  <DataDictionary numberOfFields="21">
    <DataField dataType="double" name="Status of existing checking account" optype="continuous">
      <Interval closure="closedClosed" leftMargin="0.0" rightMargin="1.0"/>
    </DataField>
    <DataField dataType="double" name="Duration in months" optype="continuous">
      <Interval closure="closedClosed" leftMargin="0.0" rightMargin="1.0"/>
    </DataField>
    <DataField dataType="double" name="Credit history" optype="continuous">
      <Interval closure="closedClosed" leftMargin="0.0" rightMargin="1.0"/>
    </DataField>
    <DataField dataType="double" name="Purpose" optype="continuous">
      <Interval closure="closedClosed" leftMargin="0.0" rightMargin="1.0"/>
    </DataField>
    <DataField dataType="double" name="Credit amount" optype="continuous">
      <Interval closure="closedClosed" leftMargin="0.0" rightMargin="1.0"/>
    </DataField>
    <DataField dataType="double" name="Savings account/bonds" optype="continuous">
      <Interval closure="closedClosed" leftMargin="0.0" rightMargin="1.0"/>
    </DataField>
    <DataField dataType="double" name="Present employment since" optype="continuous">
      <Interval closure="closedClosed" leftMargin="0.0" rightMargin="1.0"/>
    </DataField>
    <DataField dataType="double" name="Installment rate in percentage of disposable income" optype="continuous">
      <Interval closure="closedClosed" leftMargin="0.0" rightMargin="1.0"/>
    </DataField>
    <DataField dataType="double" name="Personal status and sex" optype="continuous">
      <Interval closure="closedClosed" leftMargin="0.0" rightMargin="1.0"/>
    </DataField>
    <DataField dataType="double" name="Other debtors / guarantors" optype="continuous">
      <Interval closure="closedClosed" leftMargin="0.0" rightMargin="1.0"/>
    </DataField>
    <DataField dataType="double" name="Present residence since" optype="continuous">
      <Interval closure="closedClosed" leftMargin="0.0" rightMargin="1.0"/>
    </DataField>
    <DataField dataType="double" name="Property" optype="continuous">
      <Interval closure="closedClosed" leftMargin="0.0" rightMargin="1.0"/>
    </DataField>
    <DataField dataType="double" name="Age in years" optype="continuous">
      <Interval closure="closedClosed" leftMargin="0.0" rightMargin="1.0"/>
    </DataField>
    <DataField dataType="double" name="Other installment plans" optype="continuous">
      <Interval closure="closedClosed" leftMargin="0.0" rightMargin="1.0"/>
    </DataField>
    <DataField dataType="double" name="Housing" optype="continuous">
      <Interval closure="closedClosed" leftMargin="0.0" rightMargin="1.0"/>
    </DataField>
    <DataField dataType="double" name="Number of existing credits at this bank" optype="continuous">
      <Interval closure="closedClosed" leftMargin="0.0" rightMargin="1.0"/>
    </DataField>
    <DataField dataType="double" name="Job" optype="continuous">
      <Interval closure="closedClosed" leftMargin="0.0" rightMargin="1.0"/>
    </DataField>
    <DataField dataType="double" name="Number of people being liable to provide maintenance for" optype="continuous">
      <Interval closure="closedClosed" leftMargin="0.0" rightMargin="1.0"/>
    </DataField>
    <DataField dataType="double" name="Telephone" optype="continuous">
      <Interval closure="closedClosed" leftMargin="0.0" rightMargin="1.0"/>
    </DataField>
    <DataField dataType="double" name="Foreign worker" optype="continuous">
      <Interval closure="closedClosed" leftMargin="0.0" rightMargin="1.0"/>
    </DataField>
    <DataField dataType="string" name="Score" optype="categorical">
      <Value value="good"/>
      <Value value="bad"/>
    </DataField>
  </DataDictionary>
  <SupportVectorMachineModel algorithmName="Sequential Minimal Optimization (SMO)" functionName="classification" modelName="SVM" svmRepresentation="SupportVectors">
    <MiningSchema>
      <MiningField invalidValueTreatment="asIs" name="Status of existing checking account"/>
      <MiningField invalidValueTreatment="asIs" name="Duration in months"/>
      <MiningField invalidValueTreatment="asIs" name="Credit history"/>
      <MiningField invalidValueTreatment="asIs" name="Purpose"/>
      <MiningField invalidValueTreatment="asIs" name="Credit amount"/>
      <MiningField invalidValueTreatment="asIs" name="Savings account/bonds"/>
      <MiningField invalidValueTreatment="asIs" name="Present employment since"/>
      <MiningField invalidValueTreatment="asIs" name="Installment rate in percentage of disposable income"/>
      <MiningField invalidValueTreatment="asIs" name="Personal status and sex"/>
      <MiningField invalidValueTreatment="asIs" name="Other debtors / guarantors"/>
      <MiningField invalidValueTreatment="asIs" name="Present residence since"/>
      <MiningField invalidValueTreatment="asIs" name="Property"/>
      <MiningField invalidValueTreatment="asIs" name="Age in years"/>
      <MiningField invalidValueTreatment="asIs" name="Other installment plans"/>
      <MiningField invalidValueTreatment="asIs" name="Housing"/>
      <MiningField invalidValueTreatment="asIs" name="Number of existing credits at this bank"/>
      <MiningField invalidValueTreatment="asIs" name="Job"/>
      <MiningField invalidValueTreatment="asIs" name="Number of people being liable to provide maintenance for"/>
      <MiningField invalidValueTreatment="asIs" name="Telephone"/>
      <MiningField invalidValueTreatment="asIs" name="Foreign worker"/>
      <MiningField invalidValueTreatment="asIs" name="Score" usageType="target"/>
    </MiningSchema>
    <Targets>
      <Target field="Score" optype="categorical">
        <TargetValue value="good"/>
        <TargetValue value="bad"/>
      </Target>
    </Targets>
    <PolynomialKernelType coef0="1.0" degree="1.0" gamma="1.0"/>
    <VectorDictionary numberOfVectors="579">
      <VectorFields numberOfFields="20">
        <FieldRef field="Status of existing checking account"/>
        <FieldRef field="Duration in months"/>
        <FieldRef field="Credit history"/>
        <FieldRef field="Purpose"/>
        <FieldRef field="Credit amount"/>
        <FieldRef field="Savings account/bonds"/>
        <FieldRef field="Present employment since"/>
        <FieldRef field="Installment rate in percentage of disposable income"/>
        <FieldRef field="Personal status and sex"/>
        <FieldRef field="Other debtors / guarantors"/>
        <FieldRef field="Present residence since"/>
        <FieldRef field="Property"/>
        <FieldRef field="Age in years"/>
        <FieldRef field="Other installment plans"/>
        <FieldRef field="Housing"/>
        <FieldRef field="Number of existing credits at this bank"/>
        <FieldRef field="Job"/>
        <FieldRef field="Number of people being liable to provide maintenance for"/>
        <FieldRef field="Telephone"/>
        <FieldRef field="Foreign worker"/>
      </VectorFields>
      <VectorInstance id="bad_Row1">
        <REAL-SparseArray n="20">
          <Indices>1 2 3 4 5 6 7 8 9 10 11 12 13 14 15 16 17 18 19 20</Indices>
          <REAL-Entries>0.3333333333333333 0.6470588235294117 0.25 0.0 0.3136898866512601 0.25 0.25 0.3333333333333333 0.3333333333333333 0.0 0.3333333333333333 0.0 0.0535714285714286 0.0 0.0 0.0 0.0 0.0 1.0 0.0</REAL-Entries>
        </REAL-SparseArray>
      </VectorInstance>
      <VectorInstance id="good_Row3">
        <REAL-SparseArray n="20">
          <Indices>1 2 3 4 5 6 7 8 9 10 11 12 13 14 15 16 17 18 19 20</Indices>
          <REAL-Entries>0.0 0.5588235294117647 0.25 0.2222222222222222 0.4199405744470122 0.25 0.5 0.3333333333333333 0.0 0.5 1.0 0.3333333333333333 0.46428571428571425 0.0 0.5 0.0 0.0 1.0 1.0 0.0</REAL-Entries>
        </REAL-SparseArray>
      </VectorInstance>
      <VectorInstance id="bad_Row4">
        <REAL-SparseArray n="20">
          <Indices>1 2 3 4 5 6 7 8 9 10 11 12 13 14 15 16 17 18 19 20</Indices>
          <REAL-Entries>0.0 0.2941176470588235 0.5 0.3333333333333333 0.25420931000330144 0.25 0.25 0.6666666666666667 0.0 0.0 1.0 0.6666666666666666 0.6071428571428572 0.0 0.5 0.3333333333333333 0.0 1.0 1.0 0.0</REAL-Entries>
        </REAL-SparseArray>
      </VectorInstance>
      <VectorInstance id="good_Row7">
        <REAL-SparseArray n="20">
          <Indices>1 2 3 4 5 6 7 8 9 10 11 12 13 14 15 16 17 18 19 20</Indices>
          <REAL-Entries>0.3333333333333333 0.47058823529411764 0.25 0.4444444444444444 0.3685484758446132 0.25 0.25 0.3333333333333333 0.0 0.0 0.3333333333333333 1.0 0.28571428571428575 0.0 1.0 0.0 0.6666666666666666 0.0 0.0 0.0</REAL-Entries>
        </REAL-SparseArray>
      </VectorInstance>
      <VectorInstance id="bad_Row9">
        <REAL-SparseArray n="20">
          <Indices>1 2 3 4 5 6 7 8 9 10 11 12 13 14 15 16 17 18 19 20</Indices>
          <REAL-Entries>0.3333333333333333 0.38235294117647056 0.0 0.3333333333333333 0.27423792230659183 0.25 0.75 1.0 1.0 0.0 0.3333333333333333 1.0 0.16071428571428575 0.0 0.0 0.3333333333333333 0.6666666666666666 0.0 1.0 0.0</REAL-Entries>
        </REAL-SparseArray>
      </VectorInstance>
      <VectorInstance id="bad_Row10">
        <REAL-SparseArray n="20">
          <Indices>1 2 3 4 5 6 7 8 9 10 11 12 13 14 15 16 17 18 19 20</Indices>
          <REAL-Entries>0.3333333333333333 0.1176470588235294 0.25 0.3333333333333333 0.05749972488169913 0.25 1.0 0.6666666666666667 0.3333333333333333 0.0 0.0 1.0 0.10714285714285715 0.0 1.0 0.0 0.0 0.0 1.0 0.0</REAL-Entries>
        </REAL-SparseArray>
      </VectorInstance>
      <VectorInstance id="bad_Row11">
        <REAL-SparseArray n="20">
          <Indices>1 2 3 4 5 6 7 8 9 10 11 12 13 14 15 16 17 18 19 20</Indices>
          <REAL-Entries>0.0 0.6470588235294117 0.25 0.5555555555555556 0.22328601298558381 0.25 1.0 0.6666666666666667 0.3333333333333333 0.0 1.0 0.3333333333333333 0.0892857142857143 0.0 1.0 0.0 0.0 0.0 1.0 0.0</REAL-Entries>
        </REAL-SparseArray>
      </VectorInstance>
      <VectorInstance id="bad_Row13">
        <REAL-SparseArray n="20">
          <Indices>1 2 3 4 5 6 7 8 9 10 11 12 13 14 15 16 17 18 19 20</Indices>
          <REAL-Entries>0.0 0.2941176470588235 0.0 0.3333333333333333 0.052217453505007144 0.25 0.0 1.0 0.0 0.0 1.0 1.0 0.7321428571428572 0.0 0.0 0.3333333333333333 0.3333333333333333 0.0 1.0 0.0</REAL-Entries>
        </REAL-SparseArray>
      </VectorInstance>
      <VectorInstance id="good_Row14">
        <REAL-SparseArray n="20">
          <Indices>1 2 3 4 5 6 7 8 9 10 11 12 13 14 15 16 17 18 19 20</Indices>
          <REAL-Entries>0.0 0.16176470588235292 0.25 0.3333333333333333 0.06344228018047761 0.25 0.25 0.3333333333333333 0.3333333333333333 0.0 1.0 1.0 0.16071428571428575 0.0 1.0 0.0 0.0 0.0 1.0 0.0</REAL-Entries>
        </REAL-SparseArray>
      </VectorInstance>
      <VectorInstance id="bad_Row15">
        <REAL-SparseArray n="20">
          <Indices>1 2 3 4 5 6 7 8 9 10 11 12 13 14 15 16 17 18 19 20</Indices>
          <REAL-Entries>0.0 0.2941176470588235 0.25 0.0 0.056784417299438755 1.0 0.25 1.0 0.3333333333333333 0.0 0.3333333333333333 1.0 0.23214285714285715 0.0 0.0 0.0 0.3333333333333333 0.0 1.0 0.0</REAL-Entries>
        </REAL-SparseArray>
      </VectorInstance>
      <VectorInstance id="good_Row17">
        <REAL-SparseArray n="20">
          <Indices>1 2 3 4 5 6 7 8 9 10 11 12 13 14 15 16 17 18 19 20</Indices>
          <REAL-Entries>0.0 0.38235294117647056 0.75 0.5555555555555556 0.43039506988004844 0.0 1.0 0.3333333333333333 0.0 0.0 0.6666666666666667 1.0 0.10714285714285715 0.5 0.0 0.6666666666666667 0.0 0.0 1.0 0.0</REAL-Entries>
        </REAL-SparseArray>
      </VectorInstance>
      <VectorInstance id="bad_Row18">
        <REAL-SparseArray n="20">
          <Indices>1 2 3 4 5 6 7 8 9 10 11 12 13 14 15 16 17 18 19 20</Indices>
          <REAL-Entries>0.3333333333333333 0.2941176470588235 0.25 0.4444444444444444 0.6783867062837019 0.25 0.0 1.0 0.3333333333333333 0.0 0.3333333333333333 0.6666666666666666 0.44642857142857145 0.0 0.5 0.0 0.6666666666666666 0.0 0.0 0.0</REAL-Entries>
        </REAL-SparseArray>
      </VectorInstance>
      <VectorInstance id="good_Row21">
        <REAL-SparseArray n="20">
          <Indices>1 2 3 4 5 6 7 8 9 10 11 12 13 14 15 16 17 18 19 20</Indices>
          <REAL-Entries>0.0 0.029411764705882346 0.25 0.0 0.13189171343677783 0.5 0.25 0.3333333333333333 0.0 0.0 0.6666666666666667 0.0 0.44642857142857145 0.0 1.0 0.0 0.0 1.0 1.0 0.0</REAL-Entries>
        </REAL-SparseArray>
      </VectorInstance>
      <VectorInstance id="good_Row26">
        <REAL-SparseArray n="20">
          <Indices>1 2 3 4 5 6 7 8 9 10 11 12 13 14 15 16 17 18 19 20</Indices>
          <REAL-Entries>0.6666666666666666 0.029411764705882346 0.75 0.0 0.00968416419060196 0.25 0.0 1.0 1.0 0.0 1.0 1.0 0.35714285714285715 0.0 0.0 0.0 0.3333333333333333 0.0 1.0 0.0</REAL-Entries>
        </REAL-SparseArray>
      </VectorInstance>
      <VectorInstance id="good_Row27">
        <REAL-SparseArray n="20">
          <Indices>1 2 3 4 5 6 7 8 9 10 11 12 13 14 15 16 17 18 19 20</Indices>
          <REAL-Entries>1.0 0.1176470588235294 1.0 0.0 0.008748761967646089 0.75 0.25 0.6666666666666667 0.3333333333333333 0.0 0.6666666666666667 0.0 0.41071428571428575 0.0 1.0 0.3333333333333333 0.0 0.0 1.0 0.0</REAL-Entries>
        </REAL-SparseArray>
      </VectorInstance>
      <VectorInstance id="bad_Row29">
        <REAL-SparseArray n="20">
          <Indices>1 2 3 4 5 6 7 8 9 10 11 12 13 14 15 16 17 18 19 20</Indices>
          <REAL-Entries>0.0 0.8235294117647058 0.5 0.5555555555555556 0.36238582590513924 0.25 0.0 0.6666666666666667 0.0 0.0 1.0 0.6666666666666666 0.7857142857142858 0.0 0.0 0.3333333333333333 0.0 0.0 0.0 0.0</REAL-Entries>
        </REAL-SparseArray>
      </VectorInstance>
      <VectorInstance id="good_Row30">
        <REAL-SparseArray n="20">
          <Indices>1 2 3 4 5 6 7 8 9 10 11 12 13 14 15 16 17 18 19 20</Indices>
          <REAL-Entries>0.3333333333333333 0.20588235294117646 0.25 0.5555555555555556 0.09150434686915374 0.75 1.0 0.6666666666666667 1.0 0.0 0.6666666666666667 0.0 0.30357142857142855 0.5 0.0 0.0 0.0 0.0 0.0 0.0</REAL-Entries>
        </REAL-SparseArray>
      </VectorInstance>
      <VectorInstance id="good_Row31">
        <REAL-SparseArray n="20">
          <Indices>1 2 3 4 5 6 7 8 9 10 11 12 13 14 15 16 17 18 19 20</Indices>
          <REAL-Entries>0.0 0.2941176470588235 0.25 0.2222222222222222 0.20743919885550788 0.25 0.25 0.3333333333333333 0.0 0.0 0.3333333333333333 1.0 0.14285714285714285 1.0 0.0 0.0 0.0 0.0 1.0 0.0</REAL-Entries>
        </REAL-SparseArray>
      </VectorInstance>
      <VectorInstance id="good_Row32">
        <REAL-SparseArray n="20">
          <Indices>1 2 3 4 5 6 7 8 9 10 11 12 13 14 15 16 17 18 19 20</Indices>
          <REAL-Entries>0.3333333333333333 0.20588235294117646 0.25 0.3333333333333333 0.3090128755364807 1.0 0.25 0.3333333333333333 0.0 0.0 0.3333333333333333 1.0 0.19642857142857145 0.0 0.0 0.3333333333333333 0.0 0.0 0.0 0.0</REAL-Entries>
        </REAL-SparseArray>
      </VectorInstance>
      <VectorInstance id="bad_Row35">
        <REAL-SparseArray n="20">
          <Indices>1 2 3 4 5 6 7 8 9 10 11 12 13 14 15 16 17 18 19 20</Indices>
          <REAL-Entries>0.3333333333333333 0.6029411764705882 0.0 0.0 0.24738637614174097 0.25 1.0 1.0 0.0 0.0 0.3333333333333333 0.3333333333333333 0.10714285714285715 0.0 0.0 0.3333333333333333 0.3333333333333333 0.0 1.0 0.0</REAL-Entries>
        </REAL-SparseArray>
      </VectorInstance>
      <VectorInstance id="bad_Row37">
        <REAL-SparseArray n="20">
          <Indices>1 2 3 4 5 6 7 8 9 10 11 12 13 14 15 16 17 18 19 20</Indices>
          <REAL-Entries>1.0 0.20588235294117646 0.25 0.0 0.10179377132166832 0.25 0.25 1.0 0.0 1.0 0.3333333333333333 0.0 0.32142857142857145 1.0 0.0 0.0 0.0 0.0 1.0 0.0</REAL-Entries>
        </REAL-SparseArray>
      </VectorInstance>
      <VectorInstance id="good_Row40">
        <REAL-SparseArray n="20">
          <Indices>1 2 3 4 5 6 7 8 9 10 11 12 13 14 15 16 17 18 19 20</Indices>
          <REAL-Entries>0.6666666666666666 0.38235294117647056 0.25 0.0 0.11461428414218112 0.5 0.0 1.0 0.0 0.0 0.3333333333333333 1.0 0.19642857142857145 0.5 0.0 0.0 0.6666666666666666 0.0 1.0 0.0</REAL-Entries>
        </REAL-SparseArray>
      </VectorInstance>
      <VectorInstance id="good_Row41">
        <REAL-SparseArray n="20">
          <Indices>1 2 3 4 5 6 7 8 9 10 11 12 13 14 15 16 17 18 19 20</Indices>
          <REAL-Entries>0.3333333333333333 0.1176470588235294 0.25 0.0 0.04996148343787829 0.5 0.25 0.6666666666666667 0.6666666666666666 0.0 0.0 1.0 0.125 0.0 0.0 0.0 0.0 0.0 0.0 0.0</REAL-Entries>
        </REAL-SparseArray>
      </VectorInstance>
      <VectorInstance id="good_Row43">
        <REAL-SparseArray n="20">
          <Indices>1 2 3 4 5 6 7 8 9 10 11 12 13 14 15 16 17 18 19 20</Indices>
          <REAL-Entries>0.0 0.38235294117647056 0.0 0.4444444444444444 0.3266754704522945 1.0 0.5 0.0 1.0 0.0 1.0 1.0 0.0892857142857143 0.0 1.0 0.3333333333333333 0.0 0.0 1.0 0.0</REAL-Entries>
        </REAL-SparseArray>
      </VectorInstance>
      <VectorInstance id="bad_Row44">
        <REAL-SparseArray n="20">
          <Indices>1 2 3 4 5 6 7 8 9 10 11 12 13 14 15 16 17 18 19 20</Indices>
          <REAL-Entries>0.0 0.6470588235294117 0.0 0.4444444444444444 0.324254429404644 0.25 0.0 1.0 0.3333333333333333 0.0 1.0 0.6666666666666666 0.6964285714285714 1.0 0.5 0.3333333333333333 0.3333333333333333 0.0 1.0 0.0</REAL-Entries>
        </REAL-SparseArray>
      </VectorInstance>
      <VectorInstance id="good_Row46">
        <REAL-SparseArray n="20">
          <Indices>1 2 3 4 5 6 7 8 9 10 11 12 13 14 15 16 17 18 19 20</Indices>
          <REAL-Entries>0.6666666666666666 0.47058823529411764 0.25 0.0 0.1127434796962694 0.5 0.0 1.0 0.0 0.0 1.0 1.0 0.35714285714285715 0.0 0.0 0.0 0.0 0.0 1.0 0.0</REAL-Entries>
        </REAL-SparseArray>
      </VectorInstance>
      <VectorInstance id="good_Row47">
        <REAL-SparseArray n="20">
          <Indices>1 2 3 4 5 6 7 8 9 10 11 12 13 14 15 16 17 18 19 20</Indices>
          <REAL-Entries>0.0 0.029411764705882346 0.25 0.4444444444444444 0.06063607351160999 0.5 0.75 0.0 0.3333333333333333 0.0 0.3333333333333333 0.3333333333333333 0.07142857142857145 0.0 1.0 0.0 1.0 0.0 0.0 0.0</REAL-Entries>
        </REAL-SparseArray>
      </VectorInstance>
      <VectorInstance id="good_Row50">
        <REAL-SparseArray n="20">
          <Indices>1 2 3 4 5 6 7 8 9 10 11 12 13 14 15 16 17 18 19 20</Indices>
          <REAL-Entries>0.3333333333333333 0.2941176470588235 0.5 0.2222222222222222 0.11461428414218112 0.0 1.0 1.0 0.0 0.0 0.3333333333333333 0.3333333333333333 0.17857142857142855 0.5 0.0 0.0 0.3333333333333333 0.0 1.0 0.0</REAL-Entries>
        </REAL-SparseArray>
      </VectorInstance>
      <VectorInstance id="good_Row51">
        <REAL-SparseArray n="20">
          <Indices>1 2 3 4 5 6 7 8 9 10 11 12 13 14 15 16 17 18 19 20</Indices>
          <REAL-Entries>0.3333333333333333 0.338235294117647 0.5 0.4444444444444444 0.3144602178936943 0.25 0.0 0.0 0.0 0.0 0.3333333333333333 1.0 0.19642857142857145 0.0 0.0 0.3333333333333333 0.6666666666666666 0.0 0.0 0.0</REAL-Entries>
        </REAL-SparseArray>
      </VectorInstance>
      <VectorInstance id="bad_Row54">
        <REAL-SparseArray n="20">
          <Indices>1 2 3 4 5 6 7 8 9 10 11 12 13 14 15 16 17 18 19 20</Indices>
          <REAL-Entries>0.3333333333333333 0.47058823529411764 0.5 0.3333333333333333 0.10867172884340266 0.25 0.0 1.0 0.0 0.0 1.0 0.6666666666666666 0.6785714285714286 0.5 0.5 0.3333333333333333 0.0 0.0 0.0 0.0</REAL-Entries>
        </REAL-SparseArray>
      </VectorInstance>
      <VectorInstance id="bad_Row56">
        <REAL-SparseArray n="20">
          <Indices>1 2 3 4 5 6 7 8 9 10 11 12 13 14 15 16 17 18 19 20</Indices>
          <REAL-Entries>0.3333333333333333 0.1176470588235294 0.25 0.0 0.3421371189611533 0.0 0.75 0.3333333333333333 0.0 0.0 0.0 0.6666666666666666 0.5892857142857142 0.0 0.0 0.0 0.6666666666666666 0.0 0.0 0.0</REAL-Entries>
        </REAL-SparseArray>
      </VectorInstance>
      <VectorInstance id="good_Row57">
        <REAL-SparseArray n="20">
          <Indices>1 2 3 4 5 6 7 8 9 10 11 12 13 14 15 16 17 18 19 20</Indices>
          <REAL-Entries>0.6666666666666666 0.47058823529411764 0.0 0.0 0.5126004181798173 0.25 0.25 0.3333333333333333 0.3333333333333333 0.0 0.3333333333333333 1.0 0.21428571428571425 1.0 0.0 0.3333333333333333 0.0 0.0 1.0 0.0</REAL-Entries>
        </REAL-SparseArray>
      </VectorInstance>
      <VectorInstance id="bad_Row59">
        <REAL-SparseArray n="20">
          <Indices>1 2 3 4 5 6 7 8 9 10 11 12 13 14 15 16 17 18 19 20</Indices>
          <REAL-Entries>0.0 0.47058823529411764 0.0 0.2222222222222222 0.32898646417959726 0.25 1.0 1.0 0.3333333333333333 1.0 1.0 0.6666666666666666 0.07142857142857145 0.0 1.0 0.3333333333333333 0.3333333333333333 0.0 0.0 0.0</REAL-Entries>
        </REAL-SparseArray>
      </VectorInstance>
      <VectorInstance id="bad_Row62">
        <REAL-SparseArray n="20">
          <Indices>1 2 3 4 5 6 7 8 9 10 11 12 13 14 15 16 17 18 19 20</Indices>
          <REAL-Entries>0.3333333333333333 0.47058823529411764 0.75 0.5555555555555556 0.09370529327610873 0.25 0.0 1.0 0.0 0.0 1.0 0.6666666666666666 0.75 0.0 0.5 0.0 0.6666666666666666 0.0 0.0 0.0</REAL-Entries>
        </REAL-SparseArray>
      </VectorInstance>
      <VectorInstance id="bad_Row63">
        <REAL-SparseArray n="20">
          <Indices>1 2 3 4 5 6 7 8 9 10 11 12 13 14 15 16 17 18 19 20</Indices>
          <REAL-Entries>0.3333333333333333 0.6470588235294117 0.75 0.5555555555555556 0.7797402883239792 0.25 0.25 0.3333333333333333 0.0 0.0 0.3333333333333333 1.0 0.10714285714285715 0.0 0.0 0.0 0.0 0.0 0.0 0.0</REAL-Entries>
        </REAL-SparseArray>
      </VectorInstance>
      <VectorInstance id="good_Row64">
        <REAL-SparseArray n="20">
          <Indices>1 2 3 4 5 6 7 8 9 10 11 12 13 14 15 16 17 18 19 20</Indices>
          <REAL-Entries>0.6666666666666666 0.2941176470588235 0.25 0.0 0.16127434796962695 0.25 1.0 1.0 0.3333333333333333 0.0 1.0 0.3333333333333333 0.125 0.0 0.0 0.0 0.0 0.0 0.0 0.0</REAL-Entries>
        </REAL-SparseArray>
      </VectorInstance>
      <VectorInstance id="good_Row67">
        <REAL-SparseArray n="20">
          <Indices>1 2 3 4 5 6 7 8 9 10 11 12 13 14 15 16 17 18 19 20</Indices>
          <REAL-Entries>0.3333333333333333 0.1176470588235294 0.25 0.3333333333333333 0.041652910751623196 0.75 0.25 1.0 1.0 0.0 0.0 0.0 0.0535714285714286 0.0 0.0 0.0 0.0 0.0 1.0 0.0</REAL-Entries>
        </REAL-SparseArray>
      </VectorInstance>
      <VectorInstance id="bad_Row68">
        <REAL-SparseArray n="20">
          <Indices>1 2 3 4 5 6 7 8 9 10 11 12 13 14 15 16 17 18 19 20</Indices>
          <REAL-Entries>0.6666666666666666 0.47058823529411764 0.25 0.1111111111111111 0.08633212281280951 0.25 0.25 1.0 0.0 0.0 1.0 0.6666666666666666 0.32142857142857145 1.0 0.5 0.0 0.0 0.0 0.0 0.0</REAL-Entries>
        </REAL-SparseArray>
      </VectorInstance>
      <VectorInstance id="good_Row69">
        <REAL-SparseArray n="20">
          <Indices>1 2 3 4 5 6 7 8 9 10 11 12 13 14 15 16 17 18 19 20</Indices>
          <REAL-Entries>0.6666666666666666 0.47058823529411764 0.25 0.0 0.11797072741278751 0.0 0.25 1.0 0.3333333333333333 0.0 1.0 1.0 0.10714285714285715 0.0 0.0 0.0 0.0 0.0 1.0 0.0</REAL-Entries>
        </REAL-SparseArray>
      </VectorInstance>
      <VectorInstance id="good_Row73">
        <REAL-SparseArray n="20">
          <Indices>1 2 3 4 5 6 7 8 9 10 11 12 13 14 15 16 17 18 19 20</Indices>
          <REAL-Entries>0.3333333333333333 0.5588235294117647 0.0 0.5555555555555556 0.3138549576317817 0.25 0.5 0.3333333333333333 0.3333333333333333 0.0 0.0 0.0 0.39285714285714285 0.5 0.0 0.3333333333333333 0.3333333333333333 0.0 1.0 0.0</REAL-Entries>
        </REAL-SparseArray>
      </VectorInstance>
      <VectorInstance id="bad_Row74">
        <REAL-SparseArray n="20">
          <Indices>1 2 3 4 5 6 7 8 9 10 11 12 13 14 15 16 17 18 19 20</Indices>
          <REAL-Entries>0.0 0.47058823529411764 0.25 0.1111111111111111 0.09502586112028172 0.0 0.0 1.0 0.0 0.0 1.0 0.6666666666666666 0.37499999999999994 0.0 0.0 0.0 0.6666666666666666 0.0 0.0 0.0</REAL-Entries>
        </REAL-SparseArray>
      </VectorInstance>
      <VectorInstance id="good_Row75">
        <REAL-SparseArray n="20">
          <Indices>1 2 3 4 5 6 7 8 9 10 11 12 13 14 15 16 17 18 19 20</Indices>
          <REAL-Entries>0.0 0.1176470588235294 0.0 0.4444444444444444 0.0702101903818642 0.25 0.0 1.0 0.0 0.0 1.0 0.6666666666666666 0.8392857142857144 0.0 0.5 0.3333333333333333 0.6666666666666666 0.0 1.0 0.0</REAL-Entries>
        </REAL-SparseArray>
      </VectorInstance>
      <VectorInstance id="bad_Row76">
        <REAL-SparseArray n="20">
          <Indices>1 2 3 4 5 6 7 8 9 10 11 12 13 14 15 16 17 18 19 20</Indices>
          <REAL-Entries>0.0 0.5588235294117647 0.25 0.0 0.20441289754594477 0.25 1.0 1.0 0.0 0.0 0.6666666666666667 1.0 0.26785714285714285 0.0 0.0 0.0 0.0 0.0 1.0 0.0</REAL-Entries>
        </REAL-SparseArray>
      </VectorInstance>
      <VectorInstance id="good_Row77">
        <REAL-SparseArray n="20">
          <Indices>1 2 3 4 5 6 7 8 9 10 11 12 13 14 15 16 17 18 19 20</Indices>
          <REAL-Entries>0.3333333333333333 0.10294117647058824 0.5 0.0 0.24876196764608782 0.25 0.5 0.3333333333333333 0.0 0.0 1.0 0.3333333333333333 0.5714285714285714 0.0 0.0 0.0 0.0 0.0 1.0 0.0</REAL-Entries>
        </REAL-SparseArray>
      </VectorInstance>
      <VectorInstance id="good_Row78">
        <REAL-SparseArray n="20">
          <Indices>1 2 3 4 5 6 7 8 9 10 11 12 13 14 15 16 17 18 19 20</Indices>
          <REAL-Entries>0.6666666666666666 0.7352941176470588 0.75 0.4444444444444444 0.5054473423572136 0.0 0.25 0.3333333333333333 0.0 0.0 0.3333333333333333 0.3333333333333333 0.35714285714285715 0.0 0.0 0.0 0.3333333333333333 1.0 1.0 0.0</REAL-Entries>
        </REAL-SparseArray>
      </VectorInstance>
      <VectorInstance id="good_Row79">
        <REAL-SparseArray n="20">
          <Indices>1 2 3 4 5 6 7 8 9 10 11 12 13 14 15 16 17 18 19 20</Indices>
          <REAL-Entries>0.3333333333333333 0.38235294117647056 0.25 0.2222222222222222 0.19709475074281943 0.25 1.0 0.3333333333333333 1.0 0.0 0.0 0.3333333333333333 0.0535714285714286 0.0 0.0 0.0 0.0 0.0 1.0 0.0</REAL-Entries>
        </REAL-SparseArray>
      </VectorInstance>
      <VectorInstance id="bad_Row80">
        <REAL-SparseArray n="20">
          <Indices>1 2 3 4 5 6 7 8 9 10 11 12 13 14 15 16 17 18 19 20</Indices>
          <REAL-Entries>0.6666666666666666 0.2941176470588235 0.25 0.0 0.3132496973698691 0.0 1.0 0.0 0.3333333333333333 0.0 0.0 1.0 0.44642857142857145 0.0 0.0 0.3333333333333333 0.0 0.0 0.0 0.0</REAL-Entries>
        </REAL-SparseArray>
      </VectorInstance>
      <VectorInstance id="good_Row83">
        <REAL-SparseArray n="20">
          <Indices>1 2 3 4 5 6 7 8 9 10 11 12 13 14 15 16 17 18 19 20</Indices>
          <REAL-Entries>0.0 0.2941176470588235 0.25 0.8888888888888888 0.08281060856168151 0.25 0.0 1.0 0.3333333333333333 0.5 1.0 0.0 0.6964285714285714 0.0 0.0 0.0 0.3333333333333333 0.0 0.0 0.0</REAL-Entries>
        </REAL-SparseArray>
      </VectorInstance>
      <VectorInstance id="good_Row84">
        <REAL-SparseArray n="20">
          <Indices>1 2 3 4 5 6 7 8 9 10 11 12 13 14 15 16 17 18 19 20</Indices>
          <REAL-Entries>0.0 0.08823529411764706 0.25 0.0 0.1136238582590514 0.25 0.0 0.6666666666666667 0.0 0.0 1.0 0.0 0.5892857142857142 0.0 0.0 0.0 0.3333333333333333 0.0 1.0 0.0</REAL-Entries>
        </REAL-SparseArray>
      </VectorInstance>
      <VectorInstance id="good_Row86">
        <REAL-SparseArray n="20">
          <Indices>1 2 3 4 5 6 7 8 9 10 11 12 13 14 15 16 17 18 19 20</Indices>
          <REAL-Entries>0.3333333333333333 0.20588235294117646 0.0 0.2222222222222222 0.05749972488169913 0.25 1.0 1.0 0.3333333333333333 0.0 0.0 0.3333333333333333 0.14285714285714285 0.0 0.0 0.3333333333333333 0.0 0.0 1.0 0.0</REAL-Entries>
        </REAL-SparseArray>
      </VectorInstance>
      <VectorInstance id="bad_Row87">
        <REAL-SparseArray n="20">
          <Indices>1 2 3 4 5 6 7 8 9 10 11 12 13 14 15 16 17 18 19 20</Indices>
          <REAL-Entries>0.3333333333333333 0.47058823529411764 0.25 0.1111111111111111 0.6802024870694399 1.0 0.25 0.0 0.0 0.0 1.0 0.6666666666666666 0.49999999999999994 0.0 0.5 0.0 0.0 1.0 0.0 0.0</REAL-Entries>
        </REAL-SparseArray>
      </VectorInstance>
      <VectorInstance id="good_Row88">
        <REAL-SparseArray n="20">
          <Indices>1 2 3 4 5 6 7 8 9 10 11 12 13 14 15 16 17 18 19 20</Indices>
          <REAL-Entries>0.0 0.20588235294117646 0.25 0.3333333333333333 0.10999229668757565 1.0 0.5 1.0 0.0 0.0 0.6666666666666667 1.0 0.19642857142857145 0.0 0.0 0.0 0.6666666666666666 1.0 0.0 0.0</REAL-Entries>
        </REAL-SparseArray>
      </VectorInstance>
      <VectorInstance id="bad_Row89">
        <REAL-SparseArray n="20">
          <Indices>1 2 3 4 5 6 7 8 9 10 11 12 13 14 15 16 17 18 19 20</Indices>
          <REAL-Entries>0.0 0.1176470588235294 0.75 0.7777777777777777 0.047210300429184546 0.25 0.5 1.0 0.0 0.0 0.6666666666666667 0.0 0.16071428571428575 0.0 0.0 0.3333333333333333 0.0 0.0 1.0 0.0</REAL-Entries>
        </REAL-SparseArray>
      </VectorInstance>
      <VectorInstance id="bad_Row92">
        <REAL-SparseArray n="20">
          <Indices>1 2 3 4 5 6 7 8 9 10 11 12 13 14 15 16 17 18 19 20</Indices>
          <REAL-Entries>0.6666666666666666 0.1176470588235294 0.0 0.0 0.030097942115109497 0.0 0.0 1.0 0.3333333333333333 0.0 0.6666666666666667 0.3333333333333333 0.25000000000000006 0.5 0.0 0.0 0.3333333333333333 1.0 1.0 0.0</REAL-Entries>
        </REAL-SparseArray>
      </VectorInstance>
      <VectorInstance id="good_Row97">
        <REAL-SparseArray n="20">
          <Indices>1 2 3 4 5 6 7 8 9 10 11 12 13 14 15 16 17 18 19 20</Indices>
          <REAL-Entries>0.3333333333333333 0.20588235294117646 0.25 0.5555555555555556 0.13051612193243095 1.0 0.25 1.0 0.0 0.0 1.0 1.0 0.26785714285714285 0.0 0.0 0.0 0.0 0.0 1.0 0.0</REAL-Entries>
        </REAL-SparseArray>
      </VectorInstance>
      <VectorInstance id="good_Row98">
        <REAL-SparseArray n="20">
          <Indices>1 2 3 4 5 6 7 8 9 10 11 12 13 14 15 16 17 18 19 20</Indices>
          <REAL-Entries>0.3333333333333333 0.47058823529411764 0.0 0.0 0.11483437878287663 0.25 0.0 1.0 0.0 0.0 1.0 0.0 0.30357142857142855 0.0 0.0 0.0 0.0 0.0 1.0 0.0</REAL-Entries>
        </REAL-SparseArray>
      </VectorInstance>
      <VectorInstance id="good_Row99">
        <REAL-SparseArray n="20">
          <Indices>1 2 3 4 5 6 7 8 9 10 11 12 13 14 15 16 17 18 19 20</Indices>
          <REAL-Entries>0.3333333333333333 0.23529411764705882 0.5 0.4444444444444444 0.37454605480356556 0.0 0.5 0.6666666666666667 0.0 0.0 1.0 0.3333333333333333 0.30357142857142855 0.5 1.0 0.3333333333333333 0.6666666666666666 1.0 0.0 0.0</REAL-Entries>
        </REAL-SparseArray>
      </VectorInstance>
      <VectorInstance id="good_Row100">
        <REAL-SparseArray n="20">
          <Indices>1 2 3 4 5 6 7 8 9 10 11 12 13 14 15 16 17 18 19 20</Indices>
          <REAL-Entries>0.6666666666666666 0.2941176470588235 0.25 0.3333333333333333 0.06707384175195334 1.0 0.0 1.0 1.0 0.0 1.0 0.0 0.39285714285714285 0.0 1.0 0.0 0.3333333333333333 0.0 1.0 0.0</REAL-Entries>
        </REAL-SparseArray>
      </VectorInstance>
      <VectorInstance id="good_Row101">
        <REAL-SparseArray n="20">
          <Indices>1 2 3 4 5 6 7 8 9 10 11 12 13 14 15 16 17 18 19 20</Indices>
          <REAL-Entries>0.3333333333333333 0.47058823529411764 0.25 0.0 0.1140640475404424 0.25 0.5 1.0 0.0 0.0 1.0 1.0 0.0892857142857143 0.0 1.0 0.0 0.0 0.0 1.0 0.0</REAL-Entries>
        </REAL-SparseArray>
      </VectorInstance>
      <VectorInstance id="good_Row103">
        <REAL-SparseArray n="20">
          <Indices>1 2 3 4 5 6 7 8 9 10 11 12 13 14 15 16 17 18 19 20</Indices>
          <REAL-Entries>0.3333333333333333 0.07352941176470588 0.0 0.2222222222222222 0.09183448883019699 0.25 0.5 1.0 0.0 0.0 0.6666666666666667 1.0 0.28571428571428575 0.0 1.0 0.0 0.0 0.0 0.0 0.0</REAL-Entries>
        </REAL-SparseArray>
      </VectorInstance>
      <VectorInstance id="good_Row104">
        <REAL-SparseArray n="20">
          <Indices>1 2 3 4 5 6 7 8 9 10 11 12 13 14 15 16 17 18 19 20</Indices>
          <REAL-Entries>0.6666666666666666 0.1176470588235294 0.25 0.4444444444444444 0.12077693408165512 0.0 1.0 0.3333333333333333 1.0 0.0 1.0 1.0 0.125 0.0 1.0 0.0 0.0 0.0 0.0 0.0</REAL-Entries>
        </REAL-SparseArray>
      </VectorInstance>
      <VectorInstance id="bad_Row105">
        <REAL-SparseArray n="20">
          <Indices>1 2 3 4 5 6 7 8 9 10 11 12 13 14 15 16 17 18 19 20</Indices>
          <REAL-Entries>0.3333333333333333 0.2941176470588235 0.0 0.8888888888888888 0.6431165401122483 0.25 0.25 0.3333333333333333 0.0 1.0 0.6666666666666667 1.0 0.35714285714285715 0.0 0.0 0.3333333333333333 0.6666666666666666 1.0 0.0 0.0</REAL-Entries>
        </REAL-SparseArray>
      </VectorInstance>
      <VectorInstance id="bad_Row106">
        <REAL-SparseArray n="20">
          <Indices>1 2 3 4 5 6 7 8 9 10 11 12 13 14 15 16 17 18 19 20</Indices>
          <REAL-Entries>0.6666666666666666 0.20588235294117646 1.0 0.3333333333333333 0.34158688235941453 0.25 0.0 0.3333333333333333 0.0 0.0 1.0 0.6666666666666666 0.35714285714285715 0.5 0.0 0.3333333333333333 0.6666666666666666 1.0 0.0 0.0</REAL-Entries>
        </REAL-SparseArray>
      </VectorInstance>
      <VectorInstance id="good_Row107">
        <REAL-SparseArray n="20">
          <Indices>1 2 3 4 5 6 7 8 9 10 11 12 13 14 15 16 17 18 19 20</Indices>
          <REAL-Entries>0.3333333333333333 0.1176470588235294 0.25 0.3333333333333333 0.32067789149334214 0.25 0.5 0.3333333333333333 0.0 0.0 0.3333333333333333 1.0 0.23214285714285715 0.0 0.0 0.0 0.0 0.0 1.0 0.0</REAL-Entries>
        </REAL-SparseArray>
      </VectorInstance>
      <VectorInstance id="good_Row108">
        <REAL-SparseArray n="20">
          <Indices>1 2 3 4 5 6 7 8 9 10 11 12 13 14 15 16 17 18 19 20</Indices>
          <REAL-Entries>0.0 0.2941176470588235 0.25 0.2222222222222222 0.4110817651590184 0.0 1.0 0.0 0.3333333333333333 0.0 0.3333333333333333 0.3333333333333333 0.19642857142857145 0.0 0.0 0.0 0.0 0.0 0.0 1.0</REAL-Entries>
        </REAL-SparseArray>
      </VectorInstance>
      <VectorInstance id="good_Row112">
        <REAL-SparseArray n="20">
          <Indices>1 2 3 4 5 6 7 8 9 10 11 12 13 14 15 16 17 18 19 20</Indices>
          <REAL-Entries>0.3333333333333333 0.20588235294117646 0.25 0.3333333333333333 0.33069219764498736 0.25 0.5 0.6666666666666667 0.0 0.0 0.6666666666666667 0.0 0.16071428571428575 0.0 1.0 0.0 0.3333333333333333 0.0 1.0 0.0</REAL-Entries>
        </REAL-SparseArray>
      </VectorInstance>
      <VectorInstance id="bad_Row113">
        <REAL-SparseArray n="20">
          <Indices>1 2 3 4 5 6 7 8 9 10 11 12 13 14 15 16 17 18 19 20</Indices>
          <REAL-Entries>0.6666666666666666 0.47058823529411764 0.0 0.3333333333333333 0.4184549356223176 0.25 0.25 1.0 0.3333333333333333 0.0 0.3333333333333333 0.0 0.10714285714285715 1.0 0.0 0.3333333333333333 0.0 0.0 0.0 0.0</REAL-Entries>
        </REAL-SparseArray>
      </VectorInstance>
      <VectorInstance id="good_Row114">
        <REAL-SparseArray n="20">
          <Indices>1 2 3 4 5 6 7 8 9 10 11 12 13 14 15 16 17 18 19 20</Indices>
          <REAL-Entries>0.0 0.1176470588235294 0.25 0.0 0.07868383404864092 0.5 0.0 0.6666666666666667 1.0 0.0 0.0 0.0 0.28571428571428575 0.0 0.0 0.0 0.0 0.0 1.0 0.0</REAL-Entries>
        </REAL-SparseArray>
      </VectorInstance>
      <VectorInstance id="bad_Row116">
        <REAL-SparseArray n="20">
          <Indices>1 2 3 4 5 6 7 8 9 10 11 12 13 14 15 16 17 18 19 20</Indices>
          <REAL-Entries>0.0 0.5588235294117647 0.25 0.0 0.3809838230439089 0.0 0.5 1.0 0.3333333333333333 0.0 0.6666666666666667 1.0 0.19642857142857145 0.0 0.0 0.0 0.6666666666666666 0.0 0.0 0.0</REAL-Entries>
        </REAL-SparseArray>
      </VectorInstance>
      <VectorInstance id="good_Row117">
        <REAL-SparseArray n="20">
          <Indices>1 2 3 4 5 6 7 8 9 10 11 12 13 14 15 16 17 18 19 20</Indices>
          <REAL-Entries>0.0 0.08823529411764706 0.0 0.2222222222222222 0.10355452844723231 0.0 1.0 0.3333333333333333 0.3333333333333333 1.0 0.6666666666666667 0.0 0.14285714285714285 0.0 1.0 0.3333333333333333 0.0 0.0 1.0 1.0</REAL-Entries>
        </REAL-SparseArray>
      </VectorInstance>
      <VectorInstance id="bad_Row118">
        <REAL-SparseArray n="20">
          <Indices>1 2 3 4 5 6 7 8 9 10 11 12 13 14 15 16 17 18 19 20</Indices>
          <REAL-Entries>0.0 0.4264705882352941 0.0 0.2222222222222222 0.22180037416088919 0.5 0.25 0.0 0.3333333333333333 0.0 1.0 1.0 0.07142857142857145 0.0 0.0 0.3333333333333333 0.0 0.0 1.0 0.0</REAL-Entries>
        </REAL-SparseArray>
      </VectorInstance>
      <VectorInstance id="bad_Row120">
        <REAL-SparseArray n="20">
          <Indices>1 2 3 4 5 6 7 8 9 10 11 12 13 14 15 16 17 18 19 20</Indices>
          <REAL-Entries>0.0 0.25 0.25 0.0 0.0872125013755915 0.25 0.25 0.6666666666666667 0.3333333333333333 0.0 0.3333333333333333 0.0 0.10714285714285715 0.0 0.0 0.3333333333333333 0.0 0.0 0.0 0.0</REAL-Entries>
        </REAL-SparseArray>
      </VectorInstance>
      <VectorInstance id="bad_Row124">
        <REAL-SparseArray n="20">
          <Indices>1 2 3 4 5 6 7 8 9 10 11 12 13 14 15 16 17 18 19 20</Indices>
          <REAL-Entries>0.3333333333333333 0.20588235294117646 0.25 0.2222222222222222 0.09210960713106636 0.0 1.0 1.0 0.3333333333333333 0.0 0.6666666666666667 0.0 0.14285714285714285 0.0 1.0 0.0 0.0 0.0 1.0 0.0</REAL-Entries>
        </REAL-SparseArray>
      </VectorInstance>
      <VectorInstance id="good_Row125">
        <REAL-SparseArray n="20">
          <Indices>1 2 3 4 5 6 7 8 9 10 11 12 13 14 15 16 17 18 19 20</Indices>
          <REAL-Entries>0.0 0.1176470588235294 0.0 0.3333333333333333 0.10294926818531969 0.25 0.25 1.0 0.0 0.0 0.3333333333333333 0.3333333333333333 0.19642857142857145 0.0 0.0 0.3333333333333333 0.0 0.0 1.0 0.0</REAL-Entries>
        </REAL-SparseArray>
      </VectorInstance>
      <VectorInstance id="good_Row126">
        <REAL-SparseArray n="20">
          <Indices>1 2 3 4 5 6 7 8 9 10 11 12 13 14 15 16 17 18 19 20</Indices>
          <REAL-Entries>0.0 0.1176470588235294 0.25 0.0 0.024815670738417523 0.25 0.25 1.0 1.0 0.0 0.3333333333333333 0.0 0.37499999999999994 0.0 0.0 0.0 0.3333333333333333 0.0 1.0 0.0</REAL-Entries>
        </REAL-SparseArray>
      </VectorInstance>
      <VectorInstance id="bad_Row127">
        <REAL-SparseArray n="20">
          <Indices>1 2 3 4 5 6 7 8 9 10 11 12 13 14 15 16 17 18 19 20</Indices>
          <REAL-Entries>0.3333333333333333 0.1176470588235294 0.25 0.7777777777777777 0.021404203807637284 0.25 0.25 1.0 0.0 0.0 0.3333333333333333 1.0 0.19642857142857145 0.0 0.0 0.0 0.0 0.0 1.0 0.0</REAL-Entries>
        </REAL-SparseArray>
      </VectorInstance>
      <VectorInstance id="bad_Row129">
        <REAL-SparseArray n="20">
          <Indices>1 2 3 4 5 6 7 8 9 10 11 12 13 14 15 16 17 18 19 20</Indices>
          <REAL-Entries>0.0 0.1176470588235294 0.0 0.3333333333333333 0.17877187190491914 0.25 0.25 0.6666666666666667 0.3333333333333333 1.0 0.3333333333333333 0.0 0.17857142857142855 0.0 0.0 0.3333333333333333 0.0 0.0 1.0 0.0</REAL-Entries>
        </REAL-SparseArray>
      </VectorInstance>
      <VectorInstance id="good_Row130">
        <REAL-SparseArray n="20">
          <Indices>1 2 3 4 5 6 7 8 9 10 11 12 13 14 15 16 17 18 19 20</Indices>
          <REAL-Entries>0.3333333333333333 0.6470588235294117 0.25 0.3333333333333333 0.45322988885220644 0.0 0.5 0.0 0.3333333333333333 0.0 0.3333333333333333 1.0 0.0892857142857143 0.0 0.0 0.0 0.0 0.0 1.0 0.0</REAL-Entries>
        </REAL-SparseArray>
      </VectorInstance>
      <VectorInstance id="bad_Row131">
        <REAL-SparseArray n="20">
          <Indices>1 2 3 4 5 6 7 8 9 10 11 12 13 14 15 16 17 18 19 20</Indices>
          <REAL-Entries>0.0 0.47058823529411764 0.5 0.1111111111111111 0.36519203257400684 0.25 0.25 1.0 0.0 0.0 0.6666666666666667 0.3333333333333333 0.17857142857142855 1.0 0.0 0.0 0.0 0.0 0.0 0.0</REAL-Entries>
        </REAL-SparseArray>
      </VectorInstance>
      <VectorInstance id="good_Row133">
        <REAL-SparseArray n="20">
          <Indices>1 2 3 4 5 6 7 8 9 10 11 12 13 14 15 16 17 18 19 20</Indices>
          <REAL-Entries>0.6666666666666666 0.20588235294117646 0.25 0.2222222222222222 0.09541102674149884 0.25 0.25 1.0 0.0 0.0 1.0 0.6666666666666666 0.49999999999999994 0.5 0.5 0.3333333333333333 0.0 0.0 1.0 0.0</REAL-Entries>
        </REAL-SparseArray>
      </VectorInstance>
      <VectorInstance id="good_Row134">
        <REAL-SparseArray n="20">
          <Indices>1 2 3 4 5 6 7 8 9 10 11 12 13 14 15 16 17 18 19 20</Indices>
          <REAL-Entries>0.6666666666666666 0.8235294117647058 0.25 0.0 0.5444040937603168 1.0 0.5 0.3333333333333333 0.3333333333333333 0.0 1.0 0.0 0.035714285714285754 0.0 0.0 0.0 0.0 0.0 0.0 0.0</REAL-Entries>
        </REAL-SparseArray>
      </VectorInstance>
      <VectorInstance id="good_Row136">
        <REAL-SparseArray n="20">
          <Indices>1 2 3 4 5 6 7 8 9 10 11 12 13 14 15 16 17 18 19 20</Indices>
          <REAL-Entries>0.6666666666666666 0.338235294117647 0.5 0.4444444444444444 0.46016287003411466 0.75 0.25 0.3333333333333333 0.0 0.0 0.3333333333333333 1.0 0.14285714285714285 0.0 0.0 0.3333333333333333 0.0 0.0 1.0 0.0</REAL-Entries>
        </REAL-SparseArray>
      </VectorInstance>
      <VectorInstance id="bad_Row137">
        <REAL-SparseArray n="20">
          <Indices>1 2 3 4 5 6 7 8 9 10 11 12 13 14 15 16 17 18 19 20</Indices>
          <REAL-Entries>0.3333333333333333 0.1176470588235294 0.25 0.0 0.02839220864971938 0.5 0.25 1.0 0.0 0.0 0.6666666666666667 0.0 0.8392857142857144 0.0 0.0 0.0 0.3333333333333333 0.0 1.0 0.0</REAL-Entries>
        </REAL-SparseArray>
      </VectorInstance>
      <VectorInstance id="good_Row138">
        <REAL-SparseArray n="20">
          <Indices>1 2 3 4 5 6 7 8 9 10 11 12 13 14 15 16 17 18 19 20</Indices>
          <REAL-Entries>0.3333333333333333 0.16176470588235292 0.0 0.0 0.1363486299108617 0.0 0.5 1.0 0.0 0.5 0.3333333333333333 0.0 0.28571428571428575 0.5 0.0 0.6666666666666667 0.0 0.0 0.0 0.0</REAL-Entries>
        </REAL-SparseArray>
      </VectorInstance>
      <VectorInstance id="good_Row141">
        <REAL-SparseArray n="20">
          <Indices>1 2 3 4 5 6 7 8 9 10 11 12 13 14 15 16 17 18 19 20</Indices>
          <REAL-Entries>0.3333333333333333 0.47058823529411764 0.25 0.0 0.2500825354902608 0.25 1.0 1.0 0.3333333333333333 0.0 0.0 0.6666666666666666 0.19642857142857145 0.0 0.0 0.0 0.6666666666666666 0.0 0.0 0.0</REAL-Entries>
        </REAL-SparseArray>
      </VectorInstance>
      <VectorInstance id="good_Row142">
        <REAL-SparseArray n="20">
          <Indices>1 2 3 4 5 6 7 8 9 10 11 12 13 14 15 16 17 18 19 20</Indices>
          <REAL-Entries>0.0 0.338235294117647 0.25 0.0 0.17420490811048753 0.25 0.25 0.6666666666666667 0.0 0.0 0.3333333333333333 1.0 0.14285714285714285 0.0 0.0 0.0 0.6666666666666666 0.0 1.0 0.0</REAL-Entries>
        </REAL-SparseArray>
      </VectorInstance>
      <VectorInstance id="bad_Row143">
        <REAL-SparseArray n="20">
          <Indices>1 2 3 4 5 6 7 8 9 10 11 12 13 14 15 16 17 18 19 20</Indices>
          <REAL-Entries>0.0 0.20588235294117646 0.25 0.2222222222222222 0.121712336304611 0.25 0.25 0.3333333333333333 0.0 0.0 0.3333333333333333 1.0 0.0535714285714286 0.0 0.0 0.0 0.0 0.0 1.0 0.0</REAL-Entries>
        </REAL-SparseArray>
      </VectorInstance>
      <VectorInstance id="good_Row145">
        <REAL-SparseArray n="20">
          <Indices>1 2 3 4 5 6 7 8 9 10 11 12 13 14 15 16 17 18 19 20</Indices>
          <REAL-Entries>0.3333333333333333 0.6470588235294117 1.0 0.5555555555555556 0.18245845713656875 1.0 0.5 1.0 0.0 0.0 0.3333333333333333 1.0 0.19642857142857145 0.0 0.0 0.0 0.0 0.0 1.0 0.0</REAL-Entries>
        </REAL-SparseArray>
      </VectorInstance>
      <VectorInstance id="good_Row148">
        <REAL-SparseArray n="20">
          <Indices>1 2 3 4 5 6 7 8 9 10 11 12 13 14 15 16 17 18 19 20</Indices>
          <REAL-Entries>0.0 0.47058823529411764 0.0 0.2222222222222222 0.2817761637504127 0.25 0.25 0.6666666666666667 0.0 0.5 0.3333333333333333 0.3333333333333333 0.16071428571428575 0.0 0.0 0.3333333333333333 0.0 0.0 1.0 0.0</REAL-Entries>
        </REAL-SparseArray>
      </VectorInstance>
      <VectorInstance id="good_Row153">
        <REAL-SparseArray n="20">
          <Indices>1 2 3 4 5 6 7 8 9 10 11 12 13 14 15 16 17 18 19 20</Indices>
          <REAL-Entries>0.3333333333333333 0.2941176470588235 0.0 0.4444444444444444 0.41311764058545175 0.75 0.0 0.3333333333333333 0.3333333333333333 0.0 1.0 0.6666666666666666 0.17857142857142855 0.0 1.0 0.0 0.0 0.0 1.0 0.0</REAL-Entries>
        </REAL-SparseArray>
      </VectorInstance>
      <VectorInstance id="good_Row154">
        <REAL-SparseArray n="20">
          <Indices>1 2 3 4 5 6 7 8 9 10 11 12 13 14 15 16 17 18 19 20</Indices>
          <REAL-Entries>0.3333333333333333 0.2941176470588235 0.5 0.5555555555555556 0.3695939253879168 1.0 0.5 1.0 0.0 0.0 1.0 1.0 0.30357142857142855 0.0 1.0 0.0 0.6666666666666666 0.0 0.0 0.0</REAL-Entries>
        </REAL-SparseArray>
      </VectorInstance>
      <VectorInstance id="bad_Row155">
        <REAL-SparseArray n="20">
          <Indices>1 2 3 4 5 6 7 8 9 10 11 12 13 14 15 16 17 18 19 20</Indices>
          <REAL-Entries>0.0 0.1176470588235294 0.25 0.2222222222222222 0.056784417299438755 0.25 0.25 0.3333333333333333 0.3333333333333333 0.0 1.0 1.0 0.01785714285714285 0.0 1.0 0.0 0.0 0.0 1.0 0.0</REAL-Entries>
        </REAL-SparseArray>
      </VectorInstance>
      <VectorInstance id="good_Row157">
        <REAL-SparseArray n="20">
          <Indices>1 2 3 4 5 6 7 8 9 10 11 12 13 14 15 16 17 18 19 20</Indices>
          <REAL-Entries>0.0 0.1176470588235294 1.0 1.0 0.004897105755474855 0.25 0.0 1.0 1.0 0.0 0.0 1.0 0.46428571428571425 0.5 0.0 0.0 0.3333333333333333 0.0 1.0 0.0</REAL-Entries>
        </REAL-SparseArray>
      </VectorInstance>
      <VectorInstance id="good_Row158">
        <REAL-SparseArray n="20">
          <Indices>1 2 3 4 5 6 7 8 9 10 11 12 13 14 15 16 17 18 19 20</Indices>
          <REAL-Entries>0.3333333333333333 0.2941176470588235 0.25 0.3333333333333333 0.1794871794871795 1.0 0.5 0.3333333333333333 0.0 0.0 0.6666666666666667 1.0 0.33928571428571425 0.5 0.0 0.3333333333333333 0.0 0.0 0.0 0.0</REAL-Entries>
        </REAL-SparseArray>
      </VectorInstance>
      <VectorInstance id="good_Row163">
        <REAL-SparseArray n="20">
          <Indices>1 2 3 4 5 6 7 8 9 10 11 12 13 14 15 16 17 18 19 20</Indices>
          <REAL-Entries>0.3333333333333333 0.08823529411764706 0.25 0.3333333333333333 0.3883569935072081 0.25 0.75 0.3333333333333333 0.0 0.0 1.0 0.6666666666666666 0.9107142857142858 0.5 0.5 0.0 0.6666666666666666 0.0 0.0 0.0</REAL-Entries>
        </REAL-SparseArray>
      </VectorInstance>
      <VectorInstance id="bad_Row166">
        <REAL-SparseArray n="20">
          <Indices>1 2 3 4 5 6 7 8 9 10 11 12 13 14 15 16 17 18 19 20</Indices>
          <REAL-Entries>0.0 0.20588235294117646 0.25 0.2222222222222222 0.048475844613183675 0.25 0.75 1.0 0.3333333333333333 0.0 0.3333333333333333 1.0 0.25000000000000006 0.0 0.0 0.0 0.0 0.0 1.0 0.0</REAL-Entries>
        </REAL-SparseArray>
      </VectorInstance>
      <VectorInstance id="good_Row167">
        <REAL-SparseArray n="20">
          <Indices>1 2 3 4 5 6 7 8 9 10 11 12 13 14 15 16 17 18 19 20</Indices>
          <REAL-Entries>0.3333333333333333 0.10294117647058824 0.25 0.2222222222222222 0.07301639705073182 0.75 1.0 1.0 0.3333333333333333 0.0 0.0 0.0 0.01785714285714285 0.0 0.0 0.0 0.0 0.0 1.0 0.0</REAL-Entries>
        </REAL-SparseArray>
      </VectorInstance>
      <VectorInstance id="bad_Row169">
        <REAL-SparseArray n="20">
          <Indices>1 2 3 4 5 6 7 8 9 10 11 12 13 14 15 16 17 18 19 20</Indices>
          <REAL-Entries>0.3333333333333333 0.2941176470588235 0.0 0.5555555555555556 0.09271486739297898 0.25 0.0 1.0 0.6666666666666666 0.0 1.0 0.0 0.21428571428571425 0.0 0.0 0.3333333333333333 0.0 0.0 0.0 0.0</REAL-Entries>
        </REAL-SparseArray>
      </VectorInstance>
      <VectorInstance id="bad_Row170">
        <REAL-SparseArray n="20">
          <Indices>1 2 3 4 5 6 7 8 9 10 11 12 13 14 15 16 17 18 19 20</Indices>
          <REAL-Entries>0.0 0.16176470588235292 0.75 0.3333333333333333 0.03851656212171234 0.25 0.0 1.0 0.0 0.0 0.6666666666666667 1.0 0.25000000000000006 0.0 1.0 0.3333333333333333 0.0 1.0 1.0 0.0</REAL-Entries>
        </REAL-SparseArray>
      </VectorInstance>
      <VectorInstance id="bad_Row172">
        <REAL-SparseArray n="20">
          <Indices>1 2 3 4 5 6 7 8 9 10 11 12 13 14 15 16 17 18 19 20</Indices>
          <REAL-Entries>0.3333333333333333 0.2941176470588235 0.5 0.2222222222222222 0.09981291955540883 0.25 0.75 0.6666666666666667 0.3333333333333333 0.0 0.3333333333333333 0.3333333333333333 0.26785714285714285 0.0 0.0 0.0 0.6666666666666666 0.0 0.0 0.0</REAL-Entries>
        </REAL-SparseArray>
      </VectorInstance>
      <VectorInstance id="bad_Row174">
        <REAL-SparseArray n="20">
          <Indices>1 2 3 4 5 6 7 8 9 10 11 12 13 14 15 16 17 18 19 20</Indices>
          <REAL-Entries>0.0 0.25 0.5 0.1111111111111111 0.17409486079013978 0.25 1.0 0.3333333333333333 0.0 0.0 0.0 0.3333333333333333 0.125 0.0 0.0 0.3333333333333333 0.0 0.0 1.0 0.0</REAL-Entries>
        </REAL-SparseArray>
      </VectorInstance>
      <VectorInstance id="bad_Row175">
        <REAL-SparseArray n="20">
          <Indices>1 2 3 4 5 6 7 8 9 10 11 12 13 14 15 16 17 18 19 20</Indices>
          <REAL-Entries>0.6666666666666666 0.38235294117647056 1.0 0.4444444444444444 0.39809618135798397 0.0 0.75 1.0 0.3333333333333333 0.0 0.0 0.0 0.6071428571428572 0.5 0.0 0.0 0.6666666666666666 0.0 0.0 0.0</REAL-Entries>
        </REAL-SparseArray>
      </VectorInstance>
      <VectorInstance id="good_Row176">
        <REAL-SparseArray n="20">
          <Indices>1 2 3 4 5 6 7 8 9 10 11 12 13 14 15 16 17 18 19 20</Indices>
          <REAL-Entries>0.0 0.1176470588235294 0.25 0.2222222222222222 0.1280400572246066 0.25 0.25 0.3333333333333333 0.6666666666666666 0.0 0.0 1.0 0.41071428571428575 0.0 0.0 0.0 0.0 0.0 1.0 0.0</REAL-Entries>
        </REAL-SparseArray>
      </VectorInstance>
      <VectorInstance id="good_Row177">
        <REAL-SparseArray n="20">
          <Indices>1 2 3 4 5 6 7 8 9 10 11 12 13 14 15 16 17 18 19 20</Indices>
          <REAL-Entries>0.0 0.029411764705882346 0.0 0.0 0.00484208209530098 0.5 0.0 1.0 0.0 0.0 1.0 1.0 0.5892857142857142 0.0 0.0 0.3333333333333333 0.0 0.0 1.0 0.0</REAL-Entries>
        </REAL-SparseArray>
      </VectorInstance>
      <VectorInstance id="good_Row179">
        <REAL-SparseArray n="20">
          <Indices>1 2 3 4 5 6 7 8 9 10 11 12 13 14 15 16 17 18 19 20</Indices>
          <REAL-Entries>0.0 0.25 0.0 0.3333333333333333 0.0176625949158138 0.25 0.0 1.0 0.0 0.0 1.0 0.0 0.8214285714285714 0.0 0.0 0.3333333333333333 0.0 0.0 1.0 0.0</REAL-Entries>
        </REAL-SparseArray>
      </VectorInstance>
      <VectorInstance id="bad_Row180">
        <REAL-SparseArray n="20">
          <Indices>1 2 3 4 5 6 7 8 9 10 11 12 13 14 15 16 17 18 19 20</Indices>
          <REAL-Entries>0.6666666666666666 0.47058823529411764 0.5 0.5555555555555556 0.5129305601408606 0.25 1.0 0.0 0.6666666666666666 0.0 0.0 1.0 0.16071428571428575 0.0 0.0 0.3333333333333333 0.0 0.0 1.0 0.0</REAL-Entries>
        </REAL-SparseArray>
      </VectorInstance>
      <VectorInstance id="bad_Row181">
        <REAL-SparseArray n="20">
          <Indices>1 2 3 4 5 6 7 8 9 10 11 12 13 14 15 16 17 18 19 20</Indices>
          <REAL-Entries>0.3333333333333333 0.47058823529411764 0.5 0.5555555555555556 0.2313744910311434 0.25 0.25 0.3333333333333333 0.6666666666666666 0.0 0.3333333333333333 0.0 0.19642857142857145 1.0 0.0 0.3333333333333333 0.6666666666666666 0.0 0.0 0.0</REAL-Entries>
        </REAL-SparseArray>
      </VectorInstance>
      <VectorInstance id="bad_Row182">
        <REAL-SparseArray n="20">
          <Indices>1 2 3 4 5 6 7 8 9 10 11 12 13 14 15 16 17 18 19 20</Indices>
          <REAL-Entries>0.0 0.25 1.0 0.3333333333333333 0.07686805326290305 0.0 0.25 1.0 0.0 0.0 0.3333333333333333 0.3333333333333333 0.37499999999999994 0.0 0.0 0.3333333333333333 0.3333333333333333 1.0 1.0 0.0</REAL-Entries>
        </REAL-SparseArray>
      </VectorInstance>
      <VectorInstance id="bad_Row184">
        <REAL-SparseArray n="20">
          <Indices>1 2 3 4 5 6 7 8 9 10 11 12 13 14 15 16 17 18 19 20</Indices>
          <REAL-Entries>0.3333333333333333 0.20588235294117646 0.0 0.3333333333333333 0.034885000550236606 0.25 0.0 1.0 0.0 0.0 1.0 1.0 0.30357142857142855 0.5 0.0 0.0 0.0 1.0 0.0 0.0</REAL-Entries>
        </REAL-SparseArray>
      </VectorInstance>
      <VectorInstance id="bad_Row186">
        <REAL-SparseArray n="20">
          <Indices>1 2 3 4 5 6 7 8 9 10 11 12 13 14 15 16 17 18 19 20</Indices>
          <REAL-Entries>0.3333333333333333 0.07352941176470588 1.0 0.4444444444444444 0.268460437988335 0.25 0.0 0.3333333333333333 0.3333333333333333 0.0 1.0 0.6666666666666666 0.9821428571428572 0.5 0.5 0.0 0.6666666666666666 1.0 0.0 0.0</REAL-Entries>
        </REAL-SparseArray>
      </VectorInstance>
      <VectorInstance id="bad_Row188">
        <REAL-SparseArray n="20">
          <Indices>1 2 3 4 5 6 7 8 9 10 11 12 13 14 15 16 17 18 19 20</Indices>
          <REAL-Entries>0.0 0.1176470588235294 0.25 0.0 0.0233300319137229 1.0 0.5 1.0 1.0 0.0 0.0 0.3333333333333333 0.01785714285714285 0.0 0.0 0.0 0.0 0.0 1.0 0.0</REAL-Entries>
        </REAL-SparseArray>
      </VectorInstance>
      <VectorInstance id="good_Row189">
        <REAL-SparseArray n="20">
          <Indices>1 2 3 4 5 6 7 8 9 10 11 12 13 14 15 16 17 18 19 20</Indices>
          <REAL-Entries>0.3333333333333333 0.20588235294117646 0.75 0.2222222222222222 0.16474083856058105 0.25 0.25 0.0 0.3333333333333333 0.0 1.0 1.0 0.25000000000000006 0.5 0.0 0.3333333333333333 0.0 0.0 0.0 0.0</REAL-Entries>
        </REAL-SparseArray>
      </VectorInstance>
      <VectorInstance id="bad_Row190">
        <REAL-SparseArray n="20">
          <Indices>1 2 3 4 5 6 7 8 9 10 11 12 13 14 15 16 17 18 19 20</Indices>
          <REAL-Entries>0.6666666666666666 0.2941176470588235 0.25 0.5555555555555556 0.23885770881479035 0.75 0.25 0.3333333333333333 0.0 0.0 0.6666666666666667 0.3333333333333333 0.625 0.0 0.0 0.6666666666666667 0.6666666666666666 0.0 0.0 0.0</REAL-Entries>
        </REAL-SparseArray>
      </VectorInstance>
      <VectorInstance id="bad_Row191">
        <REAL-SparseArray n="20">
          <Indices>1 2 3 4 5 6 7 8 9 10 11 12 13 14 15 16 17 18 19 20</Indices>
          <REAL-Entries>0.3333333333333333 0.6470588235294117 0.75 0.5555555555555556 0.19775503466490593 1.0 0.5 1.0 0.0 0.0 1.0 0.6666666666666666 0.26785714285714285 0.0 0.5 0.0 0.3333333333333333 1.0 1.0 0.0</REAL-Entries>
        </REAL-SparseArray>
      </VectorInstance>
      <VectorInstance id="bad_Row192">
        <REAL-SparseArray n="20">
          <Indices>1 2 3 4 5 6 7 8 9 10 11 12 13 14 15 16 17 18 19 20</Indices>
          <REAL-Entries>0.3333333333333333 0.338235294117647 0.25 0.5555555555555556 0.20166171453725104 0.25 0.25 1.0 0.0 0.0 0.3333333333333333 1.0 0.30357142857142855 0.0 0.0 0.0 0.0 1.0 0.0 0.0</REAL-Entries>
        </REAL-SparseArray>
      </VectorInstance>
      <VectorInstance id="bad_Row194">
        <REAL-SparseArray n="20">
          <Indices>1 2 3 4 5 6 7 8 9 10 11 12 13 14 15 16 17 18 19 20</Indices>
          <REAL-Entries>0.3333333333333333 0.6029411764705882 0.25 0.0 0.15302079894354573 1.0 0.25 1.0 0.0 0.5 1.0 0.3333333333333333 0.035714285714285754 0.0 1.0 0.0 0.0 0.0 1.0 0.0</REAL-Entries>
        </REAL-SparseArray>
      </VectorInstance>
      <VectorInstance id="bad_Row195">
        <REAL-SparseArray n="20">
          <Indices>1 2 3 4 5 6 7 8 9 10 11 12 13 14 15 16 17 18 19 20</Indices>
          <REAL-Entries>0.3333333333333333 0.07352941176470588 0.0 0.1111111111111111 0.06883459887751733 0.25 0.0 0.3333333333333333 0.3333333333333333 0.0 0.6666666666666667 1.0 0.26785714285714285 0.0 0.0 0.3333333333333333 0.6666666666666666 0.0 0.0 0.0</REAL-Entries>
        </REAL-SparseArray>
      </VectorInstance>
      <VectorInstance id="bad_Row197">
        <REAL-SparseArray n="20">
          <Indices>1 2 3 4 5 6 7 8 9 10 11 12 13 14 15 16 17 18 19 20</Indices>
          <REAL-Entries>0.3333333333333333 0.1176470588235294 0.25 0.2222222222222222 0.038571585781886214 1.0 1.0 1.0 0.3333333333333333 0.0 1.0 1.0 0.14285714285714285 0.5 1.0 1.0 0.0 0.0 1.0 0.0</REAL-Entries>
        </REAL-SparseArray>
      </VectorInstance>
      <VectorInstance id="good_Row198">
        <REAL-SparseArray n="20">
          <Indices>1 2 3 4 5 6 7 8 9 10 11 12 13 14 15 16 17 18 19 20</Indices>
          <REAL-Entries>0.3333333333333333 0.2941176470588235 0.25 0.4444444444444444 0.13810938703642567 0.0 0.0 1.0 0.0 0.0 1.0 0.6666666666666666 0.30357142857142855 0.5 0.5 0.0 0.0 0.0 0.0 0.0</REAL-Entries>
        </REAL-SparseArray>
      </VectorInstance>
      <VectorInstance id="bad_Row199">
        <REAL-SparseArray n="20">
          <Indices>1 2 3 4 5 6 7 8 9 10 11 12 13 14 15 16 17 18 19 20</Indices>
          <REAL-Entries>0.3333333333333333 0.20588235294117646 0.5 0.2222222222222222 0.2226807527236712 0.25 0.0 1.0 0.6666666666666666 0.0 0.6666666666666667 0.6666666666666666 0.37499999999999994 0.0 0.0 0.0 0.6666666666666666 0.0 0.0 0.0</REAL-Entries>
        </REAL-SparseArray>
      </VectorInstance>
      <VectorInstance id="good_Row201">
        <REAL-SparseArray n="20">
          <Indices>1 2 3 4 5 6 7 8 9 10 11 12 13 14 15 16 17 18 19 20</Indices>
          <REAL-Entries>0.0 0.1176470588235294 0.25 0.3333333333333333 0.05051172003961703 0.25 0.25 1.0 1.0 0.0 0.6666666666666667 0.0 0.14285714285714285 0.0 0.0 0.0 0.3333333333333333 0.0 1.0 0.0</REAL-Entries>
        </REAL-SparseArray>
      </VectorInstance>
      <VectorInstance id="good_Row202">
        <REAL-SparseArray n="20">
          <Indices>1 2 3 4 5 6 7 8 9 10 11 12 13 14 15 16 17 18 19 20</Indices>
          <REAL-Entries>0.6666666666666666 0.338235294117647 0.5 0.5555555555555556 0.2678001540662485 0.25 0.5 0.6666666666666667 0.0 0.0 1.0 1.0 0.125 0.0 0.0 0.3333333333333333 0.0 0.0 1.0 0.0</REAL-Entries>
        </REAL-SparseArray>
      </VectorInstance>
      <VectorInstance id="bad_Row203">
        <REAL-SparseArray n="20">
          <Indices>1 2 3 4 5 6 7 8 9 10 11 12 13 14 15 16 17 18 19 20</Indices>
          <REAL-Entries>0.0 0.1176470588235294 0.25 1.0 0.035875426433366345 0.25 0.5 1.0 1.0 0.0 1.0 0.3333333333333333 0.035714285714285754 0.0 1.0 0.0 0.0 0.0 1.0 0.0</REAL-Entries>
        </REAL-SparseArray>
      </VectorInstance>
      <VectorInstance id="good_Row205">
        <REAL-SparseArray n="20">
          <Indices>1 2 3 4 5 6 7 8 9 10 11 12 13 14 15 16 17 18 19 20</Indices>
          <REAL-Entries>0.0 0.38235294117647056 0.0 0.4444444444444444 0.5707604269836029 0.25 0.0 0.6666666666666667 0.0 0.0 1.0 0.6666666666666666 0.33928571428571425 0.0 0.5 0.6666666666666667 0.6666666666666666 1.0 0.0 0.0</REAL-Entries>
        </REAL-SparseArray>
      </VectorInstance>
      <VectorInstance id="good_Row208">
        <REAL-SparseArray n="20">
          <Indices>1 2 3 4 5 6 7 8 9 10 11 12 13 14 15 16 17 18 19 20</Indices>
          <REAL-Entries>0.0 0.2941176470588235 0.25 0.5555555555555556 0.3476394849785408 0.25 0.25 0.3333333333333333 1.0 0.0 0.3333333333333333 1.0 0.035714285714285754 1.0 0.0 0.0 0.3333333333333333 0.0 1.0 0.0</REAL-Entries>
        </REAL-SparseArray>
      </VectorInstance>
      <VectorInstance id="bad_Row212">
        <REAL-SparseArray n="20">
          <Indices>1 2 3 4 5 6 7 8 9 10 11 12 13 14 15 16 17 18 19 20</Indices>
          <REAL-Entries>0.0 0.338235294117647 0.75 0.5555555555555556 0.27748431825685044 0.25 0.75 0.3333333333333333 0.0 0.0 1.0 0.3333333333333333 0.5535714285714286 1.0 0.0 0.3333333333333333 0.0 0.0 0.0 0.0</REAL-Entries>
        </REAL-SparseArray>
      </VectorInstance>
      <VectorInstance id="bad_Row213">
        <REAL-SparseArray n="20">
          <Indices>1 2 3 4 5 6 7 8 9 10 11 12 13 14 15 16 17 18 19 20</Indices>
          <REAL-Entries>1.0 0.38235294117647056 0.5 0.5555555555555556 0.09122922856828436 0.25 0.0 1.0 0.0 0.0 1.0 0.0 0.8392857142857144 0.0 0.0 0.0 0.6666666666666666 0.0 0.0 0.0</REAL-Entries>
        </REAL-SparseArray>
      </VectorInstance>
      <VectorInstance id="good_Row216">
        <REAL-SparseArray n="20">
          <Indices>1 2 3 4 5 6 7 8 9 10 11 12 13 14 15 16 17 18 19 20</Indices>
          <REAL-Entries>0.0 0.20588235294117646 0.75 0.5555555555555556 0.1570375261362386 0.25 0.5 0.6666666666666667 0.0 0.0 0.0 0.3333333333333333 0.21428571428571425 0.5 0.0 0.0 0.0 0.0 0.0 0.0</REAL-Entries>
        </REAL-SparseArray>
      </VectorInstance>
      <VectorInstance id="good_Row218">
        <REAL-SparseArray n="20">
          <Indices>1 2 3 4 5 6 7 8 9 10 11 12 13 14 15 16 17 18 19 20</Indices>
          <REAL-Entries>0.0 0.2941176470588235 0.25 0.2222222222222222 0.15247056234180698 0.25 0.25 0.3333333333333333 0.6666666666666666 0.0 0.3333333333333333 0.0 0.0892857142857143 0.0 1.0 0.0 0.3333333333333333 0.0 1.0 0.0</REAL-Entries>
        </REAL-SparseArray>
      </VectorInstance>
      <VectorInstance id="good_Row220">
        <REAL-SparseArray n="20">
          <Indices>1 2 3 4 5 6 7 8 9 10 11 12 13 14 15 16 17 18 19 20</Indices>
          <REAL-Entries>0.3333333333333333 0.1176470588235294 0.25 0.0 0.020633872565203038 0.25 1.0 1.0 1.0 0.5 0.0 0.0 0.125 0.5 0.0 0.0 0.3333333333333333 0.0 1.0 0.0</REAL-Entries>
        </REAL-SparseArray>
      </VectorInstance>
      <VectorInstance id="good_Row221">
        <REAL-SparseArray n="20">
          <Indices>1 2 3 4 5 6 7 8 9 10 11 12 13 14 15 16 17 18 19 20</Indices>
          <REAL-Entries>0.0 0.1176470588235294 0.25 0.1111111111111111 0.05227247716518102 0.0 0.25 1.0 0.3333333333333333 0.0 1.0 0.3333333333333333 0.07142857142857145 0.5 1.0 0.0 0.0 0.0 0.0 0.0</REAL-Entries>
        </REAL-SparseArray>
      </VectorInstance>
      <VectorInstance id="good_Row225">
        <REAL-SparseArray n="20">
          <Indices>1 2 3 4 5 6 7 8 9 10 11 12 13 14 15 16 17 18 19 20</Indices>
          <REAL-Entries>0.6666666666666666 0.47058823529411764 0.75 0.7777777777777777 0.13002090899086607 0.25 0.25 1.0 0.0 0.0 0.3333333333333333 1.0 0.14285714285714285 0.0 0.0 0.3333333333333333 0.0 0.0 1.0 0.0</REAL-Entries>
        </REAL-SparseArray>
      </VectorInstance>
      <VectorInstance id="bad_Row226">
        <REAL-SparseArray n="20">
          <Indices>1 2 3 4 5 6 7 8 9 10 11 12 13 14 15 16 17 18 19 20</Indices>
          <REAL-Entries>0.3333333333333333 0.6470588235294117 0.25 0.0 0.5893584241223726 0.75 0.5 0.0 0.0 1.0 0.3333333333333333 0.6666666666666666 0.14285714285714285 0.5 0.0 0.3333333333333333 0.0 0.0 0.0 0.0</REAL-Entries>
        </REAL-SparseArray>
      </VectorInstance>
      <VectorInstance id="bad_Row227">
        <REAL-SparseArray n="20">
          <Indices>1 2 3 4 5 6 7 8 9 10 11 12 13 14 15 16 17 18 19 20</Indices>
          <REAL-Entries>0.0 0.1176470588235294 0.25 0.2222222222222222 0.41900517222405637 0.25 0.0 1.0 0.0 0.0 1.0 0.6666666666666666 0.6071428571428572 0.0 0.5 0.0 0.6666666666666666 0.0 0.0 0.0</REAL-Entries>
        </REAL-SparseArray>
      </VectorInstance>
      <VectorInstance id="bad_Row228">
        <REAL-SparseArray n="20">
          <Indices>1 2 3 4 5 6 7 8 9 10 11 12 13 14 15 16 17 18 19 20</Indices>
          <REAL-Entries>0.6666666666666666 0.07352941176470588 0.25 0.0 0.0675690546935182 0.25 0.5 1.0 0.0 0.0 0.3333333333333333 1.0 0.0535714285714286 0.0 0.0 0.0 0.0 0.0 1.0 0.0</REAL-Entries>
        </REAL-SparseArray>
      </VectorInstance>
      <VectorInstance id="good_Row229">
        <REAL-SparseArray n="20">
          <Indices>1 2 3 4 5 6 7 8 9 10 11 12 13 14 15 16 17 18 19 20</Indices>
          <REAL-Entries>0.0 0.2941176470588235 0.25 0.2222222222222222 0.15951359084406297 0.25 1.0 1.0 0.0 0.0 0.0 0.6666666666666666 0.0535714285714286 0.5 0.5 0.0 0.0 0.0 1.0 0.0</REAL-Entries>
        </REAL-SparseArray>
      </VectorInstance>
      <VectorInstance id="bad_Row230">
        <REAL-SparseArray n="20">
          <Indices>1 2 3 4 5 6 7 8 9 10 11 12 13 14 15 16 17 18 19 20</Indices>
          <REAL-Entries>1.0 0.47058823529411764 0.25 0.0 0.21789369428854408 0.25 0.25 1.0 0.0 0.0 0.3333333333333333 1.0 0.125 0.0 0.0 0.0 0.0 0.0 1.0 0.0</REAL-Entries>
        </REAL-SparseArray>
      </VectorInstance>
      <VectorInstance id="good_Row233">
        <REAL-SparseArray n="20">
          <Indices>1 2 3 4 5 6 7 8 9 10 11 12 13 14 15 16 17 18 19 20</Indices>
          <REAL-Entries>0.3333333333333333 0.20588235294117646 0.25 0.0 0.03389457466710685 0.25 0.25 1.0 1.0 0.5 0.3333333333333333 0.0 0.10714285714285715 0.0 0.0 0.0 0.3333333333333333 0.0 1.0 0.0</REAL-Entries>
        </REAL-SparseArray>
      </VectorInstance>
      <VectorInstance id="bad_Row235">
        <REAL-SparseArray n="20">
          <Indices>1 2 3 4 5 6 7 8 9 10 11 12 13 14 15 16 17 18 19 20</Indices>
          <REAL-Entries>0.0 0.2941176470588235 0.25 0.0 0.086552217453505 0.25 0.75 1.0 0.0 0.0 0.3333333333333333 1.0 0.19642857142857145 1.0 0.0 0.0 0.6666666666666666 1.0 1.0 0.0</REAL-Entries>
        </REAL-SparseArray>
      </VectorInstance>
      <VectorInstance id="bad_Row236">
        <REAL-SparseArray n="20">
          <Indices>1 2 3 4 5 6 7 8 9 10 11 12 13 14 15 16 17 18 19 20</Indices>
          <REAL-Entries>0.3333333333333333 0.029411764705882346 0.25 0.3333333333333333 0.7871134587872785 0.0 0.75 0.0 0.0 0.0 0.3333333333333333 0.3333333333333333 0.07142857142857145 0.0 0.0 0.0 1.0 0.0 0.0 0.0</REAL-Entries>
        </REAL-SparseArray>
      </VectorInstance>
      <VectorInstance id="bad_Row237">
        <REAL-SparseArray n="20">
          <Indices>1 2 3 4 5 6 7 8 9 10 11 12 13 14 15 16 17 18 19 20</Indices>
          <REAL-Entries>0.3333333333333333 0.25 0.25 0.5555555555555556 0.1384945526576428 1.0 0.0 1.0 0.6666666666666666 0.0 0.3333333333333333 1.0 0.75 0.5 1.0 0.3333333333333333 0.3333333333333333 0.0 1.0 0.0</REAL-Entries>
        </REAL-SparseArray>
      </VectorInstance>
      <VectorInstance id="good_Row239">
        <REAL-SparseArray n="20">
          <Indices>1 2 3 4 5 6 7 8 9 10 11 12 13 14 15 16 17 18 19 20</Indices>
          <REAL-Entries>0.0 0.38235294117647056 0.25 0.0 0.1250137559150435 0.25 0.0 0.0 0.0 0.5 0.6666666666666667 0.3333333333333333 0.35714285714285715 0.0 0.0 0.0 0.0 1.0 1.0 0.0</REAL-Entries>
        </REAL-SparseArray>
      </VectorInstance>
      <VectorInstance id="bad_Row240">
        <REAL-SparseArray n="20">
          <Indices>1 2 3 4 5 6 7 8 9 10 11 12 13 14 15 16 17 18 19 20</Indices>
          <REAL-Entries>0.0 0.2941176470588235 0.25 0.3333333333333333 0.03659073401562672 0.0 0.0 1.0 0.3333333333333333 0.0 0.3333333333333333 1.0 0.17857142857142855 0.5 0.0 0.0 0.0 0.0 1.0 0.0</REAL-Entries>
        </REAL-SparseArray>
      </VectorInstance>
      <VectorInstance id="bad_Row242">
        <REAL-SparseArray n="20">
          <Indices>1 2 3 4 5 6 7 8 9 10 11 12 13 14 15 16 17 18 19 20</Indices>
          <REAL-Entries>0.0 0.6470588235294117 0.75 0.4444444444444444 0.2396280400572246 0.25 0.0 0.6666666666666667 0.0 0.0 1.0 0.6666666666666666 0.0892857142857143 0.0 0.5 0.3333333333333333 0.0 1.0 1.0 0.0</REAL-Entries>
        </REAL-SparseArray>
      </VectorInstance>
      <VectorInstance id="good_Row244">
        <REAL-SparseArray n="20">
          <Indices>1 2 3 4 5 6 7 8 9 10 11 12 13 14 15 16 17 18 19 20</Indices>
          <REAL-Entries>0.6666666666666666 0.1176470588235294 1.0 1.0 0.17591064157587763 0.5 0.25 1.0 0.3333333333333333 0.0 0.6666666666666667 0.0 0.28571428571428575 0.0 0.0 0.0 0.3333333333333333 1.0 1.0 0.0</REAL-Entries>
        </REAL-SparseArray>
      </VectorInstance>
      <VectorInstance id="good_Row247">
        <REAL-SparseArray n="20">
          <Indices>1 2 3 4 5 6 7 8 9 10 11 12 13 14 15 16 17 18 19 20</Indices>
          <REAL-Entries>0.6666666666666666 0.029411764705882346 0.75 0.3333333333333333 0.05249257180587652 1.0 0.25 1.0 0.0 0.0 0.0 0.6666666666666666 0.28571428571428575 0.5 1.0 0.0 0.0 0.0 1.0 1.0</REAL-Entries>
        </REAL-SparseArray>
      </VectorInstance>
      <VectorInstance id="bad_Row249">
        <REAL-SparseArray n="20">
          <Indices>1 2 3 4 5 6 7 8 9 10 11 12 13 14 15 16 17 18 19 20</Indices>
          <REAL-Entries>0.6666666666666666 0.20588235294117646 0.25 0.0 0.010069329811819083 0.25 0.75 0.6666666666666667 0.3333333333333333 1.0 1.0 0.0 0.0535714285714286 0.0 1.0 0.0 0.0 0.0 1.0 0.0</REAL-Entries>
        </REAL-SparseArray>
      </VectorInstance>
      <VectorInstance id="bad_Row252">
        <REAL-SparseArray n="20">
          <Indices>1 2 3 4 5 6 7 8 9 10 11 12 13 14 15 16 17 18 19 20</Indices>
          <REAL-Entries>0.3333333333333333 0.38235294117647056 0.25 0.3333333333333333 0.10454495433036205 0.25 0.25 1.0 0.3333333333333333 0.5 0.3333333333333333 0.6666666666666666 0.0892857142857143 0.5 0.0 0.0 0.0 0.0 1.0 0.0</REAL-Entries>
        </REAL-SparseArray>
      </VectorInstance>
      <VectorInstance id="good_Row255">
        <REAL-SparseArray n="20">
          <Indices>1 2 3 4 5 6 7 8 9 10 11 12 13 14 15 16 17 18 19 20</Indices>
          <REAL-Entries>0.3333333333333333 0.8235294117647058 0.5 0.0 0.39440959612633436 0.0 0.25 0.0 0.0 0.0 0.0 0.0 0.14285714285714285 0.0 0.0 0.0 0.3333333333333333 0.0 1.0 0.0</REAL-Entries>
        </REAL-SparseArray>
      </VectorInstance>
      <VectorInstance id="good_Row260">
        <REAL-SparseArray n="20">
          <Indices>1 2 3 4 5 6 7 8 9 10 11 12 13 14 15 16 17 18 19 20</Indices>
          <REAL-Entries>0.0 0.1176470588235294 0.25 0.2222222222222222 0.07741828986464179 0.25 0.25 0.3333333333333333 0.0 0.0 0.3333333333333333 0.0 0.14285714285714285 0.0 0.0 0.0 0.0 0.0 1.0 0.0</REAL-Entries>
        </REAL-SparseArray>
      </VectorInstance>
      <VectorInstance id="good_Row261">
        <REAL-SparseArray n="20">
          <Indices>1 2 3 4 5 6 7 8 9 10 11 12 13 14 15 16 17 18 19 20</Indices>
          <REAL-Entries>0.0 0.2941176470588235 0.25 0.0 0.07444701221525256 0.25 0.0 1.0 0.3333333333333333 0.0 1.0 1.0 0.6428571428571428 0.0 0.0 0.0 0.0 0.0 1.0 0.0</REAL-Entries>
        </REAL-SparseArray>
      </VectorInstance>
      <VectorInstance id="good_Row262">
        <REAL-SparseArray n="20">
          <Indices>1 2 3 4 5 6 7 8 9 10 11 12 13 14 15 16 17 18 19 20</Indices>
          <REAL-Entries>0.0 0.20588235294117646 0.0 0.3333333333333333 0.27797953119841534 0.25 0.0 0.3333333333333333 0.0 0.0 1.0 0.6666666666666666 0.30357142857142855 0.0 0.5 0.6666666666666667 0.6666666666666666 0.0 0.0 0.0</REAL-Entries>
        </REAL-SparseArray>
      </VectorInstance>
      <VectorInstance id="bad_Row265">
        <REAL-SparseArray n="20">
          <Indices>1 2 3 4 5 6 7 8 9 10 11 12 13 14 15 16 17 18 19 20</Indices>
          <REAL-Entries>0.3333333333333333 0.16176470588235292 0.25 0.0 0.030373060415978873 0.25 0.0 1.0 0.0 0.0 0.6666666666666667 1.0 0.32142857142857145 0.0 0.0 0.0 0.0 1.0 1.0 0.0</REAL-Entries>
        </REAL-SparseArray>
      </VectorInstance>
      <VectorInstance id="good_Row267">
        <REAL-SparseArray n="20">
          <Indices>1 2 3 4 5 6 7 8 9 10 11 12 13 14 15 16 17 18 19 20</Indices>
          <REAL-Entries>0.6666666666666666 0.2941176470588235 0.25 0.0 0.07059535600308132 0.25 1.0 1.0 0.3333333333333333 0.0 0.6666666666666667 1.0 0.33928571428571425 1.0 0.0 0.0 0.0 0.0 0.0 0.0</REAL-Entries>
        </REAL-SparseArray>
      </VectorInstance>
      <VectorInstance id="bad_Row268">
        <REAL-SparseArray n="20">
          <Indices>1 2 3 4 5 6 7 8 9 10 11 12 13 14 15 16 17 18 19 20</Indices>
          <REAL-Entries>0.0 0.14705882352941174 0.25 0.3333333333333333 0.48024650599757895 0.25 0.0 0.0 0.6666666666666666 0.0 1.0 0.3333333333333333 0.46428571428571425 0.0 0.0 0.0 0.6666666666666666 0.0 0.0 1.0</REAL-Entries>
        </REAL-SparseArray>
      </VectorInstance>
      <VectorInstance id="good_Row272">
        <REAL-SparseArray n="20">
          <Indices>1 2 3 4 5 6 7 8 9 10 11 12 13 14 15 16 17 18 19 20</Indices>
          <REAL-Entries>0.3333333333333333 0.6470588235294117 1.0 0.3333333333333333 0.6558270056124132 0.0 0.75 1.0 0.0 1.0 1.0 0.6666666666666666 0.30357142857142855 0.0 0.5 0.0 0.6666666666666666 0.0 0.0 0.0</REAL-Entries>
        </REAL-SparseArray>
      </VectorInstance>
      <VectorInstance id="bad_Row273">
        <REAL-SparseArray n="20">
          <Indices>1 2 3 4 5 6 7 8 9 10 11 12 13 14 15 16 17 18 19 20</Indices>
          <REAL-Entries>0.3333333333333333 0.6470588235294117 0.25 0.0 0.1546164850885881 0.25 0.5 1.0 0.0 0.0 1.0 0.0 0.16071428571428575 0.0 0.0 0.3333333333333333 0.0 0.0 1.0 0.0</REAL-Entries>
        </REAL-SparseArray>
      </VectorInstance>
      <VectorInstance id="bad_Row274">
        <REAL-SparseArray n="20">
          <Indices>1 2 3 4 5 6 7 8 9 10 11 12 13 14 15 16 17 18 19 20</Indices>
          <REAL-Entries>0.0 0.38235294117647056 0.25 0.7777777777777777 0.6464179597226807 0.25 1.0 0.0 0.6666666666666666 0.0 0.0 0.6666666666666666 0.26785714285714285 0.0 0.0 0.0 0.3333333333333333 0.0 0.0 0.0</REAL-Entries>
        </REAL-SparseArray>
      </VectorInstance>
      <VectorInstance id="bad_Row278">
        <REAL-SparseArray n="20">
          <Indices>1 2 3 4 5 6 7 8 9 10 11 12 13 14 15 16 17 18 19 20</Indices>
          <REAL-Entries>0.6666666666666666 0.029411764705882346 0.25 0.2222222222222222 0.23995818201826785 0.25 1.0 0.0 0.3333333333333333 0.0 1.0 0.3333333333333333 0.23214285714285715 0.0 0.0 0.0 0.0 0.0 1.0 0.0</REAL-Entries>
        </REAL-SparseArray>
      </VectorInstance>
      <VectorInstance id="good_Row279">
        <REAL-SparseArray n="20">
          <Indices>1 2 3 4 5 6 7 8 9 10 11 12 13 14 15 16 17 18 19 20</Indices>
          <REAL-Entries>0.6666666666666666 0.2941176470588235 0.25 0.0 0.09084406294706723 1.0 0.25 1.0 0.0 0.0 1.0 1.0 0.17857142857142855 0.0 1.0 0.0 0.6666666666666666 0.0 0.0 0.0</REAL-Entries>
        </REAL-SparseArray>
      </VectorInstance>
      <VectorInstance id="good_Row282">
        <REAL-SparseArray n="20">
          <Indices>1 2 3 4 5 6 7 8 9 10 11 12 13 14 15 16 17 18 19 20</Indices>
          <REAL-Entries>1.0 0.20588235294117646 1.0 0.0 0.06575327390778034 0.0 0.5 1.0 0.0 0.0 1.0 1.0 0.5357142857142858 0.5 0.0 0.0 0.3333333333333333 0.0 1.0 0.0</REAL-Entries>
        </REAL-SparseArray>
      </VectorInstance>
      <VectorInstance id="good_Row284">
        <REAL-SparseArray n="20">
          <Indices>1 2 3 4 5 6 7 8 9 10 11 12 13 14 15 16 17 18 19 20</Indices>
          <REAL-Entries>0.3333333333333333 0.2941176470588235 0.0 0.3333333333333333 0.19962583911081766 1.0 1.0 1.0 0.6666666666666666 0.0 0.3333333333333333 1.0 0.32142857142857145 0.0 0.0 0.0 0.0 0.0 0.0 0.0</REAL-Entries>
        </REAL-SparseArray>
      </VectorInstance>
      <VectorInstance id="good_Row285">
        <REAL-SparseArray n="20">
          <Indices>1 2 3 4 5 6 7 8 9 10 11 12 13 14 15 16 17 18 19 20</Indices>
          <REAL-Entries>0.0 0.6323529411764706 0.25 0.3333333333333333 0.5762077693408165 0.25 1.0 0.0 0.3333333333333333 0.0 0.0 0.0 0.28571428571428575 0.0 0.0 0.0 0.3333333333333333 0.0 0.0 0.0</REAL-Entries>
        </REAL-SparseArray>
      </VectorInstance>
      <VectorInstance id="good_Row286">
        <REAL-SparseArray n="20">
          <Indices>1 2 3 4 5 6 7 8 9 10 11 12 13 14 15 16 17 18 19 20</Indices>
          <REAL-Entries>0.0 0.6470588235294117 0.25 0.4444444444444444 0.24969736986904373 0.25 0.5 1.0 0.0 0.0 0.6666666666666667 0.3333333333333333 0.125 0.0 0.0 0.0 0.0 1.0 1.0 0.0</REAL-Entries>
        </REAL-SparseArray>
      </VectorInstance>
      <VectorInstance id="good_Row287">
        <REAL-SparseArray n="20">
          <Indices>1 2 3 4 5 6 7 8 9 10 11 12 13 14 15 16 17 18 19 20</Indices>
          <REAL-Entries>0.3333333333333333 0.6470588235294117 0.5 0.8888888888888888 0.4034334763948498 1.0 0.75 0.3333333333333333 0.0 0.0 1.0 0.6666666666666666 0.21428571428571425 0.0 0.5 0.0 0.6666666666666666 0.0 0.0 0.0</REAL-Entries>
        </REAL-SparseArray>
      </VectorInstance>
      <VectorInstance id="bad_Row289">
        <REAL-SparseArray n="20">
          <Indices>1 2 3 4 5 6 7 8 9 10 11 12 13 14 15 16 17 18 19 20</Indices>
          <REAL-Entries>0.0 0.2941176470588235 0.5 0.0 0.04258831297457907 0.25 1.0 1.0 1.0 0.0 1.0 0.0 0.5178571428571428 1.0 0.0 0.0 0.0 0.0 1.0 0.0</REAL-Entries>
        </REAL-SparseArray>
      </VectorInstance>
      <VectorInstance id="bad_Row291">
        <REAL-SparseArray n="20">
          <Indices>1 2 3 4 5 6 7 8 9 10 11 12 13 14 15 16 17 18 19 20</Indices>
          <REAL-Entries>0.3333333333333333 0.47058823529411764 0.25 0.4444444444444444 0.5033564432706064 0.25 1.0 0.0 1.0 0.0 1.0 1.0 0.16071428571428575 0.0 1.0 0.0 0.6666666666666666 0.0 0.0 0.0</REAL-Entries>
        </REAL-SparseArray>
      </VectorInstance>
      <VectorInstance id="good_Row292">
        <REAL-SparseArray n="20">
          <Indices>1 2 3 4 5 6 7 8 9 10 11 12 13 14 15 16 17 18 19 20</Indices>
          <REAL-Entries>0.0 0.2941176470588235 0.0 0.4444444444444444 0.33944095961263343 0.25 0.0 0.3333333333333333 0.3333333333333333 0.0 1.0 0.6666666666666666 0.44642857142857145 0.0 0.5 0.3333333333333333 0.6666666666666666 1.0 0.0 0.0</REAL-Entries>
        </REAL-SparseArray>
      </VectorInstance>
      <VectorInstance id="good_Row294">
        <REAL-SparseArray n="20">
          <Indices>1 2 3 4 5 6 7 8 9 10 11 12 13 14 15 16 17 18 19 20</Indices>
          <REAL-Entries>0.6666666666666666 0.6470588235294117 0.0 0.5555555555555556 0.40601958842302194 0.0 0.0 1.0 0.6666666666666666 0.0 0.3333333333333333 1.0 0.48214285714285715 0.5 0.0 0.3333333333333333 0.6666666666666666 1.0 1.0 0.0</REAL-Entries>
        </REAL-SparseArray>
      </VectorInstance>
      <VectorInstance id="bad_Row295">
        <REAL-SparseArray n="20">
          <Indices>1 2 3 4 5 6 7 8 9 10 11 12 13 14 15 16 17 18 19 20</Indices>
          <REAL-Entries>0.3333333333333333 0.6470588235294117 0.25 0.2222222222222222 0.5342797402883239 0.25 1.0 0.0 0.3333333333333333 0.0 0.3333333333333333 1.0 0.125 0.0 0.0 0.0 0.0 0.0 0.0 0.0</REAL-Entries>
        </REAL-SparseArray>
      </VectorInstance>
      <VectorInstance id="good_Row296">
        <REAL-SparseArray n="20">
          <Indices>1 2 3 4 5 6 7 8 9 10 11 12 13 14 15 16 17 18 19 20</Indices>
          <REAL-Entries>0.6666666666666666 0.1176470588235294 0.25 0.4444444444444444 0.24347969626939586 0.0 1.0 0.0 0.3333333333333333 0.0 1.0 1.0 0.01785714285714285 0.0 1.0 0.0 0.0 0.0 1.0 0.0</REAL-Entries>
        </REAL-SparseArray>
      </VectorInstance>
      <VectorInstance id="bad_Row301">
        <REAL-SparseArray n="20">
          <Indices>1 2 3 4 5 6 7 8 9 10 11 12 13 14 15 16 17 18 19 20</Indices>
          <REAL-Entries>0.3333333333333333 0.47058823529411764 0.75 0.0 0.19555408825795093 0.25 0.25 1.0 0.3333333333333333 0.0 0.0 1.0 0.41071428571428575 0.0 0.0 0.0 0.0 0.0 0.0 0.0</REAL-Entries>
        </REAL-SparseArray>
      </VectorInstance>
      <VectorInstance id="bad_Row302">
        <REAL-SparseArray n="20">
          <Indices>1 2 3 4 5 6 7 8 9 10 11 12 13 14 15 16 17 18 19 20</Indices>
          <REAL-Entries>1.0 0.2941176470588235 0.0 0.3333333333333333 0.06019588423021899 0.0 0.5 1.0 0.0 0.0 0.3333333333333333 0.0 0.32142857142857145 0.5 0.0 0.3333333333333333 0.3333333333333333 1.0 1.0 0.0</REAL-Entries>
        </REAL-SparseArray>
      </VectorInstance>
      <VectorInstance id="good_Row303">
        <REAL-SparseArray n="20">
          <Indices>1 2 3 4 5 6 7 8 9 10 11 12 13 14 15 16 17 18 19 20</Indices>
          <REAL-Entries>0.0 0.08823529411764706 0.0 0.3333333333333333 0.04335864421701331 0.25 0.5 1.0 0.0 1.0 0.6666666666666667 0.3333333333333333 0.5357142857142858 0.0 0.0 0.3333333333333333 0.0 0.0 0.0 0.0</REAL-Entries>
        </REAL-SparseArray>
      </VectorInstance>
      <VectorInstance id="bad_Row304">
        <REAL-SparseArray n="20">
          <Indices>1 2 3 4 5 6 7 8 9 10 11 12 13 14 15 16 17 18 19 20</Indices>
          <REAL-Entries>0.6666666666666666 0.6470588235294117 0.0 0.3333333333333333 0.543468691537361 0.5 0.25 0.3333333333333333 0.0 0.0 0.3333333333333333 0.6666666666666666 0.44642857142857145 0.5 0.5 0.0 0.0 0.0 1.0 0.0</REAL-Entries>
        </REAL-SparseArray>
      </VectorInstance>
      <VectorInstance id="good_Row306">
        <REAL-SparseArray n="20">
          <Indices>1 2 3 4 5 6 7 8 9 10 11 12 13 14 15 16 17 18 19 20</Indices>
          <REAL-Entries>0.6666666666666666 0.38235294117647056 0.25 0.4444444444444444 0.25096291405304283 0.0 0.5 0.3333333333333333 0.3333333333333333 0.0 1.0 0.3333333333333333 0.0892857142857143 1.0 1.0 0.0 0.3333333333333333 0.0 1.0 0.0</REAL-Entries>
        </REAL-SparseArray>
      </VectorInstance>
      <VectorInstance id="bad_Row307">
        <REAL-SparseArray n="20">
          <Indices>1 2 3 4 5 6 7 8 9 10 11 12 13 14 15 16 17 18 19 20</Indices>
          <REAL-Entries>0.0 0.1176470588235294 0.25 0.0 0.026246285902938263 1.0 1.0 1.0 1.0 0.0 0.6666666666666667 0.6666666666666666 0.25000000000000006 0.0 0.0 0.0 0.3333333333333333 0.0 0.0 0.0</REAL-Entries>
        </REAL-SparseArray>
      </VectorInstance>
      <VectorInstance id="bad_Row308">
        <REAL-SparseArray n="20">
          <Indices>1 2 3 4 5 6 7 8 9 10 11 12 13 14 15 16 17 18 19 20</Indices>
          <REAL-Entries>0.3333333333333333 0.058823529411764705 0.25 0.2222222222222222 0.05430835259161439 0.25 0.25 0.6666666666666667 0.3333333333333333 0.0 1.0 0.0 0.0892857142857143 0.0 0.0 0.0 0.0 0.0 1.0 0.0</REAL-Entries>
        </REAL-SparseArray>
      </VectorInstance>
      <VectorInstance id="good_Row309">
        <REAL-SparseArray n="20">
          <Indices>1 2 3 4 5 6 7 8 9 10 11 12 13 14 15 16 17 18 19 20</Indices>
          <REAL-Entries>0.3333333333333333 0.07352941176470588 0.25 0.3333333333333333 0.001430615164520744 0.25 0.25 1.0 1.0 0.0 1.0 0.0 0.0535714285714286 0.0 1.0 0.0 0.3333333333333333 0.0 1.0 0.0</REAL-Entries>
        </REAL-SparseArray>
      </VectorInstance>
      <VectorInstance id="good_Row310">
        <REAL-SparseArray n="20">
          <Indices>1 2 3 4 5 6 7 8 9 10 11 12 13 14 15 16 17 18 19 20</Indices>
          <REAL-Entries>0.3333333333333333 0.6470588235294117 0.25 0.8888888888888888 0.28232640035215145 0.0 0.75 0.6666666666666667 0.0 0.0 1.0 0.6666666666666666 0.37499999999999994 0.5 0.5 0.0 1.0 0.0 0.0 0.0</REAL-Entries>
        </REAL-SparseArray>
      </VectorInstance>
      <VectorInstance id="good_Row311">
        <REAL-SparseArray n="20">
          <Indices>1 2 3 4 5 6 7 8 9 10 11 12 13 14 15 16 17 18 19 20</Indices>
          <REAL-Entries>0.6666666666666666 0.2941176470588235 0.25 0.2222222222222222 0.28947947617475517 1.0 0.25 1.0 0.0 0.0 0.0 1.0 0.10714285714285715 1.0 0.0 0.0 0.0 0.0 1.0 0.0</REAL-Entries>
        </REAL-SparseArray>
      </VectorInstance>
      <VectorInstance id="bad_Row313">
        <REAL-SparseArray n="20">
          <Indices>1 2 3 4 5 6 7 8 9 10 11 12 13 14 15 16 17 18 19 20</Indices>
          <REAL-Entries>0.3333333333333333 0.1176470588235294 0.25 0.3333333333333333 0.023935292175635527 0.25 0.5 0.3333333333333333 1.0 0.0 0.6666666666666667 1.0 0.10714285714285715 0.5 0.0 0.0 0.3333333333333333 0.0 1.0 0.0</REAL-Entries>
        </REAL-SparseArray>
      </VectorInstance>
      <VectorInstance id="good_Row316">
        <REAL-SparseArray n="20">
          <Indices>1 2 3 4 5 6 7 8 9 10 11 12 13 14 15 16 17 18 19 20</Indices>
          <REAL-Entries>0.0 0.1176470588235294 0.25 0.2222222222222222 0.025200836359634642 0.25 0.25 0.3333333333333333 0.0 0.5 0.6666666666666667 0.3333333333333333 0.33928571428571425 0.0 0.0 0.0 0.3333333333333333 1.0 1.0 0.0</REAL-Entries>
        </REAL-SparseArray>
      </VectorInstance>
      <VectorInstance id="good_Row319">
        <REAL-SparseArray n="20">
          <Indices>1 2 3 4 5 6 7 8 9 10 11 12 13 14 15 16 17 18 19 20</Indices>
          <REAL-Entries>0.0 0.16176470588235292 0.5 0.2222222222222222 0.1866952789699571 0.25 0.0 0.0 0.3333333333333333 0.0 1.0 0.3333333333333333 0.14285714285714285 0.0 0.0 0.3333333333333333 0.3333333333333333 0.0 1.0 0.0</REAL-Entries>
        </REAL-SparseArray>
      </VectorInstance>
      <VectorInstance id="bad_Row320">
        <REAL-SparseArray n="20">
          <Indices>1 2 3 4 5 6 7 8 9 10 11 12 13 14 15 16 17 18 19 20</Indices>
          <REAL-Entries>0.3333333333333333 0.38235294117647056 0.0 0.3333333333333333 0.2200396170353252 0.25 0.75 1.0 1.0 0.0 0.3333333333333333 1.0 0.16071428571428575 0.0 0.0 0.3333333333333333 0.6666666666666666 0.0 1.0 0.0</REAL-Entries>
        </REAL-SparseArray>
      </VectorInstance>
      <VectorInstance id="bad_Row321">
        <REAL-SparseArray n="20">
          <Indices>1 2 3 4 5 6 7 8 9 10 11 12 13 14 15 16 17 18 19 20</Indices>
          <REAL-Entries>0.0 0.2941176470588235 0.25 0.0 0.0928799383735006 0.25 1.0 1.0 0.6666666666666666 0.0 0.6666666666666667 0.3333333333333333 0.23214285714285715 0.0 0.0 0.0 0.0 0.0 1.0 0.0</REAL-Entries>
        </REAL-SparseArray>
      </VectorInstance>
      <VectorInstance id="good_Row322">
        <REAL-SparseArray n="20">
          <Indices>1 2 3 4 5 6 7 8 9 10 11 12 13 14 15 16 17 18 19 20</Indices>
          <REAL-Entries>0.0 0.2941176470588235 0.25 0.4444444444444444 0.1463629360625069 0.25 0.5 0.3333333333333333 0.0 0.0 0.0 0.6666666666666666 0.26785714285714285 0.0 0.5 0.0 0.6666666666666666 0.0 0.0 0.0</REAL-Entries>
        </REAL-SparseArray>
      </VectorInstance>
      <VectorInstance id="good_Row323">
        <REAL-SparseArray n="20">
          <Indices>1 2 3 4 5 6 7 8 9 10 11 12 13 14 15 16 17 18 19 20</Indices>
          <REAL-Entries>0.0 0.20588235294117646 0.25 0.2222222222222222 0.13255199735886433 0.75 0.25 1.0 0.0 0.0 0.3333333333333333 1.0 0.16071428571428575 0.0 0.0 0.0 0.0 0.0 1.0 0.0</REAL-Entries>
        </REAL-SparseArray>
      </VectorInstance>
      <VectorInstance id="good_Row330">
        <REAL-SparseArray n="20">
          <Indices>1 2 3 4 5 6 7 8 9 10 11 12 13 14 15 16 17 18 19 20</Indices>
          <REAL-Entries>0.0 0.2941176470588235 0.0 0.4444444444444444 0.3502255970067129 0.25 0.75 0.3333333333333333 0.0 0.0 1.0 0.6666666666666666 1.0 0.0 0.5 0.3333333333333333 0.6666666666666666 0.0 0.0 0.0</REAL-Entries>
        </REAL-SparseArray>
      </VectorInstance>
      <VectorInstance id="bad_Row331">
        <REAL-SparseArray n="20">
          <Indices>1 2 3 4 5 6 7 8 9 10 11 12 13 14 15 16 17 18 19 20</Indices>
          <REAL-Entries>0.6666666666666666 0.20588235294117646 0.0 0.1111111111111111 0.08880818752063387 1.0 0.25 1.0 0.3333333333333333 0.0 0.3333333333333333 0.0 0.19642857142857145 0.0 0.0 0.3333333333333333 0.0 0.0 1.0 0.0</REAL-Entries>
        </REAL-SparseArray>
      </VectorInstance>
      <VectorInstance id="bad_Row332">
        <REAL-SparseArray n="20">
          <Indices>1 2 3 4 5 6 7 8 9 10 11 12 13 14 15 16 17 18 19 20</Indices>
          <REAL-Entries>0.3333333333333333 0.8235294117647058 0.25 0.3333333333333333 0.3938593595245956 1.0 1.0 1.0 0.3333333333333333 0.0 0.3333333333333333 0.3333333333333333 0.0892857142857143 0.0 0.0 0.0 0.6666666666666666 0.0 1.0 0.0</REAL-Entries>
        </REAL-SparseArray>
      </VectorInstance>
      <VectorInstance id="bad_Row333">
        <REAL-SparseArray n="20">
          <Indices>1 2 3 4 5 6 7 8 9 10 11 12 13 14 15 16 17 18 19 20</Indices>
          <REAL-Entries>0.6666666666666666 0.6470588235294117 0.0 0.4444444444444444 0.6239683063717398 1.0 0.25 0.3333333333333333 0.3333333333333333 0.0 1.0 1.0 0.0892857142857143 0.5 1.0 0.3333333333333333 0.3333333333333333 0.0 1.0 0.0</REAL-Entries>
        </REAL-SparseArray>
      </VectorInstance>
      <VectorInstance id="bad_Row334">
        <REAL-SparseArray n="20">
          <Indices>1 2 3 4 5 6 7 8 9 10 11 12 13 14 15 16 17 18 19 20</Indices>
          <REAL-Entries>0.0 0.2941176470588235 0.75 0.2222222222222222 0.21239132827115662 0.25 0.0 0.6666666666666667 0.0 0.0 1.0 0.6666666666666666 0.07142857142857145 0.5 1.0 0.3333333333333333 0.0 1.0 1.0 0.0</REAL-Entries>
        </REAL-SparseArray>
      </VectorInstance>
      <VectorInstance id="bad_Row335">
        <REAL-SparseArray n="20">
          <Indices>1 2 3 4 5 6 7 8 9 10 11 12 13 14 15 16 17 18 19 20</Indices>
          <REAL-Entries>0.0 0.029411764705882346 0.0 0.2222222222222222 0.17244415098492352 0.25 0.25 0.0 0.6666666666666666 0.0 1.0 0.0 0.44642857142857145 0.0 1.0 0.0 0.6666666666666666 0.0 0.0 0.0</REAL-Entries>
        </REAL-SparseArray>
      </VectorInstance>
      <VectorInstance id="good_Row336">
        <REAL-SparseArray n="20">
          <Indices>1 2 3 4 5 6 7 8 9 10 11 12 13 14 15 16 17 18 19 20</Indices>
          <REAL-Entries>0.3333333333333333 0.13235294117647056 0.25 0.0 0.10184879498184218 0.25 1.0 0.3333333333333333 0.3333333333333333 0.5 1.0 0.3333333333333333 0.07142857142857145 0.0 0.0 0.0 0.3333333333333333 0.0 1.0 0.0</REAL-Entries>
        </REAL-SparseArray>
      </VectorInstance>
      <VectorInstance id="bad_Row337">
        <REAL-SparseArray n="20">
          <Indices>1 2 3 4 5 6 7 8 9 10 11 12 13 14 15 16 17 18 19 20</Indices>
          <REAL-Entries>0.0 0.16176470588235292 0.25 0.6666666666666666 0.05639925167822163 0.0 0.25 1.0 0.3333333333333333 0.0 0.3333333333333333 1.0 0.0892857142857143 0.0 1.0 0.0 0.0 0.0 1.0 0.0</REAL-Entries>
        </REAL-SparseArray>
      </VectorInstance>
      <VectorInstance id="good_Row338">
        <REAL-SparseArray n="20">
          <Indices>1 2 3 4 5 6 7 8 9 10 11 12 13 14 15 16 17 18 19 20</Indices>
          <REAL-Entries>0.0 0.2941176470588235 0.25 0.2222222222222222 0.21563772422141522 0.25 0.25 1.0 0.0 0.0 1.0 0.3333333333333333 0.16071428571428575 0.0 0.0 0.0 0.0 0.0 1.0 0.0</REAL-Entries>
        </REAL-SparseArray>
      </VectorInstance>
      <VectorInstance id="good_Row339">
        <REAL-SparseArray n="20">
          <Indices>1 2 3 4 5 6 7 8 9 10 11 12 13 14 15 16 17 18 19 20</Indices>
          <REAL-Entries>0.3333333333333333 0.08823529411764706 0.25 0.2222222222222222 0.06993507208099482 0.25 0.25 1.0 0.6666666666666666 0.0 0.3333333333333333 1.0 0.21428571428571425 0.0 0.0 0.0 0.3333333333333333 0.0 1.0 0.0</REAL-Entries>
        </REAL-SparseArray>
      </VectorInstance>
      <VectorInstance id="good_Row340">
        <REAL-SparseArray n="20">
          <Indices>1 2 3 4 5 6 7 8 9 10 11 12 13 14 15 16 17 18 19 20</Indices>
          <REAL-Entries>0.3333333333333333 0.2941176470588235 0.0 0.1111111111111111 0.3022449653350941 0.25 1.0 0.3333333333333333 0.3333333333333333 0.0 1.0 0.6666666666666666 0.0892857142857143 0.0 0.5 0.3333333333333333 0.0 0.0 0.0 0.0</REAL-Entries>
        </REAL-SparseArray>
      </VectorInstance>
      <VectorInstance id="good_Row341">
        <REAL-SparseArray n="20">
          <Indices>1 2 3 4 5 6 7 8 9 10 11 12 13 14 15 16 17 18 19 20</Indices>
          <REAL-Entries>0.0 0.25 0.25 0.2222222222222222 0.1842742379223066 0.25 0.5 0.0 0.3333333333333333 0.0 1.0 1.0 0.125 0.0 1.0 0.0 0.3333333333333333 0.0 1.0 0.0</REAL-Entries>
        </REAL-SparseArray>
      </VectorInstance>
      <VectorInstance id="good_Row342">
        <REAL-SparseArray n="20">
          <Indices>1 2 3 4 5 6 7 8 9 10 11 12 13 14 15 16 17 18 19 20</Indices>
          <REAL-Entries>0.3333333333333333 0.20588235294117646 0.25 0.0 0.16303510509519095 0.5 1.0 0.0 1.0 0.0 0.6666666666666667 0.0 0.10714285714285715 0.0 1.0 0.0 0.0 0.0 1.0 0.0</REAL-Entries>
        </REAL-SparseArray>
      </VectorInstance>
      <VectorInstance id="good_Row346">
        <REAL-SparseArray n="20">
          <Indices>1 2 3 4 5 6 7 8 9 10 11 12 13 14 15 16 17 18 19 20</Indices>
          <REAL-Entries>0.3333333333333333 0.13235294117647056 0.0 0.0 0.034774953229888855 0.25 1.0 1.0 0.0 0.5 1.0 0.0 0.07142857142857145 0.0 0.0 0.3333333333333333 0.0 0.0 1.0 0.0</REAL-Entries>
        </REAL-SparseArray>
      </VectorInstance>
      <VectorInstance id="good_Row347">
        <REAL-SparseArray n="20">
          <Indices>1 2 3 4 5 6 7 8 9 10 11 12 13 14 15 16 17 18 19 20</Indices>
          <REAL-Entries>0.3333333333333333 0.2941176470588235 0.25 0.0 0.1930229998899527 0.5 0.75 0.0 0.3333333333333333 0.0 1.0 0.6666666666666666 0.07142857142857145 0.0 1.0 0.0 1.0 0.0 1.0 0.0</REAL-Entries>
        </REAL-SparseArray>
      </VectorInstance>
      <VectorInstance id="bad_Row349">
        <REAL-SparseArray n="20">
          <Indices>1 2 3 4 5 6 7 8 9 10 11 12 13 14 15 16 17 18 19 20</Indices>
          <REAL-Entries>0.3333333333333333 0.07352941176470588 0.0 0.1111111111111111 0.048750962914053037 0.75 0.0 1.0 0.0 0.0 0.6666666666666667 0.6666666666666666 0.23214285714285715 0.0 0.5 0.3333333333333333 0.0 1.0 1.0 0.0</REAL-Entries>
        </REAL-SparseArray>
      </VectorInstance>
      <VectorInstance id="bad_Row351">
        <REAL-SparseArray n="20">
          <Indices>1 2 3 4 5 6 7 8 9 10 11 12 13 14 15 16 17 18 19 20</Indices>
          <REAL-Entries>0.3333333333333333 0.07352941176470588 0.25 0.2222222222222222 0.039011775063277215 0.25 0.25 0.0 0.3333333333333333 0.0 0.3333333333333333 1.0 0.17857142857142855 0.0 0.0 0.0 0.0 0.0 1.0 1.0</REAL-Entries>
        </REAL-SparseArray>
      </VectorInstance>
      <VectorInstance id="bad_Row353">
        <REAL-SparseArray n="20">
          <Indices>1 2 3 4 5 6 7 8 9 10 11 12 13 14 15 16 17 18 19 20</Indices>
          <REAL-Entries>0.0 0.1176470588235294 0.75 0.0 0.327335754374381 0.25 0.25 1.0 0.0 0.0 0.3333333333333333 0.3333333333333333 0.16071428571428575 0.0 1.0 0.3333333333333333 0.0 0.0 0.0 0.0</REAL-Entries>
        </REAL-SparseArray>
      </VectorInstance>
      <VectorInstance id="bad_Row355">
        <REAL-SparseArray n="20">
          <Indices>1 2 3 4 5 6 7 8 9 10 11 12 13 14 15 16 17 18 19 20</Indices>
          <REAL-Entries>0.3333333333333333 0.2941176470588235 0.25 0.3333333333333333 0.05480356553317926 0.25 1.0 1.0 0.0 0.0 0.3333333333333333 0.0 0.07142857142857145 1.0 0.0 0.0 0.3333333333333333 0.0 1.0 0.0</REAL-Entries>
        </REAL-SparseArray>
      </VectorInstance>
      <VectorInstance id="bad_Row357">
        <REAL-SparseArray n="20">
          <Indices>1 2 3 4 5 6 7 8 9 10 11 12 13 14 15 16 17 18 19 20</Indices>
          <REAL-Entries>0.6666666666666666 0.47058823529411764 0.5 0.0 0.2318146803125344 0.25 0.25 1.0 0.0 0.0 0.3333333333333333 1.0 0.125 0.0 0.0 0.3333333333333333 0.6666666666666666 0.0 0.0 0.0</REAL-Entries>
        </REAL-SparseArray>
      </VectorInstance>
      <VectorInstance id="bad_Row359">
        <REAL-SparseArray n="20">
          <Indices>1 2 3 4 5 6 7 8 9 10 11 12 13 14 15 16 17 18 19 20</Indices>
          <REAL-Entries>0.0 0.38235294117647056 0.25 0.2222222222222222 0.11863101133487398 0.25 0.5 1.0 0.3333333333333333 0.0 1.0 0.0 0.07142857142857145 0.0 1.0 0.0 0.0 0.0 1.0 0.0</REAL-Entries>
        </REAL-SparseArray>
      </VectorInstance>
      <VectorInstance id="good_Row360">
        <REAL-SparseArray n="20">
          <Indices>1 2 3 4 5 6 7 8 9 10 11 12 13 14 15 16 17 18 19 20</Indices>
          <REAL-Entries>0.3333333333333333 0.20588235294117646 0.25 0.1111111111111111 0.05441839991196214 0.0 0.25 1.0 0.0 0.0 1.0 0.6666666666666666 0.75 0.0 0.5 0.0 0.0 0.0 1.0 0.0</REAL-Entries>
        </REAL-SparseArray>
      </VectorInstance>
      <VectorInstance id="bad_Row364">
        <REAL-SparseArray n="20">
          <Indices>1 2 3 4 5 6 7 8 9 10 11 12 13 14 15 16 17 18 19 20</Indices>
          <REAL-Entries>0.0 0.20588235294117646 0.25 0.2222222222222222 0.12231759656652359 0.25 0.75 1.0 0.0 0.0 0.0 1.0 0.10714285714285715 0.0 0.0 0.0 1.0 0.0 1.0 0.0</REAL-Entries>
        </REAL-SparseArray>
      </VectorInstance>
      <VectorInstance id="good_Row367">
        <REAL-SparseArray n="20">
          <Indices>1 2 3 4 5 6 7 8 9 10 11 12 13 14 15 16 17 18 19 20</Indices>
          <REAL-Entries>0.0 0.20588235294117646 0.25 0.2222222222222222 0.1870804445911742 0.25 1.0 0.0 0.3333333333333333 0.0 1.0 1.0 0.0535714285714286 0.0 1.0 0.0 0.0 0.0 1.0 0.0</REAL-Entries>
        </REAL-SparseArray>
      </VectorInstance>
      <VectorInstance id="bad_Row368">
        <REAL-SparseArray n="20">
          <Indices>1 2 3 4 5 6 7 8 9 10 11 12 13 14 15 16 17 18 19 20</Indices>
          <REAL-Entries>0.0 0.47058823529411764 0.25 0.2222222222222222 0.17585561791570375 0.25 0.0 1.0 0.0 0.0 0.3333333333333333 1.0 0.41071428571428575 0.0 0.0 0.0 0.0 1.0 1.0 0.0</REAL-Entries>
        </REAL-SparseArray>
      </VectorInstance>
      <VectorInstance id="good_Row369">
        <REAL-SparseArray n="20">
          <Indices>1 2 3 4 5 6 7 8 9 10 11 12 13 14 15 16 17 18 19 20</Indices>
          <REAL-Entries>0.3333333333333333 0.20588235294117646 0.25 0.2222222222222222 0.1513700891383295 0.25 0.5 0.3333333333333333 0.3333333333333333 0.0 1.0 0.0 0.37499999999999994 0.0 1.0 0.0 0.0 0.0 1.0 0.0</REAL-Entries>
        </REAL-SparseArray>
      </VectorInstance>
      <VectorInstance id="good_Row373">
        <REAL-SparseArray n="20">
          <Indices>1 2 3 4 5 6 7 8 9 10 11 12 13 14 15 16 17 18 19 20</Indices>
          <REAL-Entries>0.6666666666666666 0.8235294117647058 0.0 0.3333333333333333 0.7431495543083525 0.0 0.0 0.3333333333333333 0.0 0.0 1.0 0.6666666666666666 0.7857142857142858 0.5 0.5 0.0 0.6666666666666666 0.0 0.0 0.0</REAL-Entries>
        </REAL-SparseArray>
      </VectorInstance>
      <VectorInstance id="bad_Row378">
        <REAL-SparseArray n="20">
          <Indices>1 2 3 4 5 6 7 8 9 10 11 12 13 14 15 16 17 18 19 20</Indices>
          <REAL-Entries>0.3333333333333333 0.47058823529411764 0.25 0.3333333333333333 0.7740728513260702 0.25 0.0 1.0 0.0 0.0 0.3333333333333333 0.6666666666666666 0.6785714285714286 0.0 0.5 0.0 0.6666666666666666 0.0 0.0 0.0</REAL-Entries>
        </REAL-SparseArray>
      </VectorInstance>
      <VectorInstance id="good_Row380">
        <REAL-SparseArray n="20">
          <Indices>1 2 3 4 5 6 7 8 9 10 11 12 13 14 15 16 17 18 19 20</Indices>
          <REAL-Entries>0.0 0.23529411764705882 0.25 0.2222222222222222 0.10795642126114229 0.0 0.5 1.0 0.0 0.0 1.0 1.0 0.35714285714285715 0.0 0.0 0.0 0.0 0.0 0.0 0.0</REAL-Entries>
        </REAL-SparseArray>
      </VectorInstance>
      <VectorInstance id="bad_Row381">
        <REAL-SparseArray n="20">
          <Indices>1 2 3 4 5 6 7 8 9 10 11 12 13 14 15 16 17 18 19 20</Indices>
          <REAL-Entries>0.3333333333333333 0.20588235294117646 0.25 0.4444444444444444 0.7002310993727302 0.25 0.75 0.6666666666666667 0.3333333333333333 0.0 1.0 0.6666666666666666 0.33928571428571425 0.0 0.5 0.0 0.6666666666666666 0.0 0.0 0.0</REAL-Entries>
        </REAL-SparseArray>
      </VectorInstance>
      <VectorInstance id="good_Row382">
        <REAL-SparseArray n="20">
